on e</w> 0.16692670166736198 -0.16202248335672675 -0.10357694580727582 0.24094706912039318 -0.1372937720030906 0.0754284206418233 -0.13786762045791104 -0.21989328822074475 -0.1759298600261354 0.34399513015373523 0.012657532011756517 0.048825138255407866 0.031038700135408468 -0.056654566046872246 -0.026900939323875217 0.07055478015223986 -0.04175160334465478 0.09664892436240367 0.03775325388603054 0.1439899169775837 -0.09511129017708696 -0.15614575224724825 -0.13826900487159363 -0.06956835653912671 0.06804122041354212 -0.11071793643282257 0.10430231656530863 -0.00610872686226771 0.11738451417342921 -0.034807545991604044 0.012290684408303516 -0.037437681898781244 0.024137068063097886 0.028690289844418758 0.18699976395833068 -0.1738260781396678 -0.1211354130286011 -0.3202849461210001 0.14879330187203504 -0.07307581182923985 -0.005432623035463228 -0.15172759421281135 0.2916341601326723 -0.1024427702518892 -0.07518544051856668 0.01899138519051541 0.08035359074915042 -0.35006775994149253 0.1318440083694089 -0.07873933335387281
of</w> 0.055710117369955986 0.10973904732997293 0.18518225470708702 -0.07687491810296973 0.28116227062029986 -0.07805482683242285 0.08412009533093842 -0.14905107235559376 -0.09639398673981862 -0.11153851285376039 -0.19626152846037087 0.08757362191993778 -0.029203866533610026 0.22568889099533473 0.04028496031583731 0.10205822391202442 -0.05028592386059042 0.04480265948471187 -0.21326956520587656 0.1361974526235984 0.3777250071844797 0.057344406371076684 0.03680590155777357 -0.08174024453867705 0.06755141355734172 -0.25185838143249784 0.15461279507776535 0.21697891516141865 0.1815680075271192 -0.1216726032902024 -0.1908853190695826 -0.12687712516796115 -0.03842727424898067 0.05873022069689678 -0.21211313454542605 -0.007214608769023994 0.19589342673558757 0.10055752682871243 0.13894951008394676 0.08165959786967401 0.025321804866063405 -0.18385587250235477 -0.03197357237522588 -0.23521645838786784 -0.017700540486584468 0.0365157773103426 -0.054017450952102974 0.06593310395990723 0.09164849362329916 -0.06382663897449005
the</w> 0.061993805426393205 -0.11593228018753475 0.1341716882933251 -0.13421546602590007 -0.18429244370843623 -0.004890686333506787 0.2864753394757667 -0.23786562470576494 -0.06752234651371093 -0.2190913899619007 0.12249716216361349 0.0933278264316483 -0.08015881995610913 0.21114709399568946 -0.0548197866269803 -0.18258298836295755 0.15828514459422233 -0.033000156918472565 0.025538631944287207 0.032401436117605945 0.12392596505505994 0.1826379182495647 -0.01866767489563605 -0.021062816094638018 0.06691546185895726 -0.04500962901035919 0.013279991546983195 -0.008968443260903076 0.09542555247726126 -0.22197517560837876 -0.24793666446184362 -0.0441355659082435 -0.03493043035303623 -0.12856603132096564 -0.28603338738121276 -0.0077117297755028786 0.08196203388780193 -0.2025096858230261 0.09094418874377524 -0.02223209559442858 -0.08464771719297529 0.12304026221114978 -0.0737052051924706 -0.29242403422859153 -0.1250724405058795 -0.19244778238371202 0.19364309515003217 0.08688627148970164 0.16875240020246868 -0.09464755030569133
o th er</w> 0.037278984304115366 0.1691869194629346 -0.0019709202552488357 -0.11558592587199527 0.07054197722575382 -0.39876090199810404 -0.2339421430905567 -0.13527724781150766 0.353874156344421 -0.06878950526596934 0.055396431341182134 0.24814916661351866 0.0459218940972405 0.014815906702893351 0.20857254573257472 -0.08129074021759373 -0.07068909921604404 0.035504593539634664 -0.03519418293946167 -0.08111204735167854 -0.04400967073439244 -0.012748984357040074 0.04780853077681207 0.04964114493556071 0.1515656870246325 0.0681388036000117 -0.01820733898881543 -0.20776558726045394 -0.16497864747065139 0.017821949742178697 0.052018363525284564 -0.1922926422584596 -0.10669814978934837 0.20617688220750358 -0.054132762249049796 0.026079734788317002 0.0832418375238918 0.2364437053228497 -0.14276181930961068 0.1748134631876679 0.04451286182770099 0.03863699267130161 -0.18671990555670842 0.22927694436357307 -0.14323254753505046 -0.05416701080325683 -0.010003819219221041 0.14923429750883552 -0.03739987894511804 -0.062459703174677646
re v i e w er s</w> 0.11773596971193 0.06327391370719326 0.23315561834054446 0.11167642119769458 0.0002270510399307155 -0.11638627097033666 0.12120388809478605 -0.20012366304826967 0.09330023481789937 0.1605796818557443 -0.13948350381820857 -0.01119695557587895 -0.15132336351907552 -0.022168017173403325 -0.1560842604946572 -0.16691047816707477 0.24286193982233137 0.06850851348863174 0.18018653776964802 -0.07187824491789017 -0.015972198806575487 -0.06604709950989353 -0.0034766193305110107 -0.04984833720772495 -0.19846837368518538 -0.1841616455695031 0.00570043451081516 0.24258015843677924 0.05103895542686289 -0.23054738849273437 0.23188465141487383 0.024321434160911738 0.09619322697738138 0.07116936439392572 -0.048991041469900805 0.07309013499426038 -0.144297606953269 -0.09627367192188446 -0.07641028139314776 -0.18962831371090566 -0.10829865573736029 -0.012280561754207726 -0.34975014915405206 0.17367712709154703 0.015779874246543434 0.1305641857099267 0.29188045422060355 -0.022324846797500957 0.03004579984356874 0.06632636087245443
h as</w> -0.2812306501629632 0.054472637626391505 -0.07466310809155069 0.07934203504712421 0.1762456549511021 -0.09277266049818694 -0.03316542589041232 -0.2277997615121809 0.09806206655885785 0.1396515144467154 0.11478110081842717 -0.25928137434822107 -0.22203724657369905 0.02468863136800235 0.09233728631379046 -0.3160220804799767 -0.11152446752102986 0.07310096104997767 -0.005153983174945316 0.07705289072076305 -0.030239461989184768 -0.12076213393803294 -0.051545783700145884 -0.12438826907244978 0.10644953182406039 0.043461982329674374 0.0249330138581834 -0.06993746690228582 -0.0665363579367276 -0.014840430261279831 0.10026464585441766 0.18416756279342267 0.139693485309556 0.10734113073530221 -0.17186876292962486 -0.03613298249820252 0.1410462939837533 0.09602176600446938 0.15158933581526227 0.4115164061452827 0.02289337992645481 0.04992832024239252 -0.09101575550413676 -0.10200693603762968 -0.09559647678131734 0.003964820370320258 -0.22976316639604807 -0.1506191958127773 0.16960979735663648 0.04934059802267099
m en t i on ed</w> 0.251789101110993 -0.11169828568934814 0.03056834781337172 0.0024641037507569857 -0.03882024772444085 -0.07926982078776346 0.07697968804967259 0.08885655851058522 -0.15027347533184174 0.11413808455296923 0.050402199962861265 0.2667214872447371 -0.22076027854607186 -0.00994005005665576 0.04998458381413466 0.01140073278960171 0.008173308889089565 -0.14358695175568656 0.0984000363970238 0.0918029981093604 0.05229857037151929 -0.1692222994178315 0.050612358841374445 0.22764780011116464 0.11541711139627013 -0.07619589677405812 -0.012675154151062228 0.10333807569890703 -0.41972641135289124 -0.07391016314987424 0.16443320282979493 -0.25785946044099556 0.3422181826715909 0.03464643811643875 -0.08784216520209581 -0.1656568529995032 -0.05643671579278787 0.032789749594503245 0.07947857859141935 -0.06278426306723452 -0.12868691734120172 -0.002282909565179796 -0.004091523285112242 -0.041578914402959355 -0.14584373660275923 0.023100825022124905 0.11045412580907633 -0.22553183088376552 0.05142404050444398 0.19319729409809006
th at</w> -0.2734881573166112 0.16609263056784815 -0.012814778419005139 -0.126610375301478 0.005830621214343289 0.20104208960493328 0.05680886631880646 0.1519379200838878 -0.08741135818417878 -0.14179180865861618 -0.08547355641113598 0.08408367285637361 0.09919768877992483 -0.02275816111462305 0.02044613001354675 0.015802418015683897 0.2960065106609627 0.04304386815632834 -0.051863680703247185 0.03762476545325287 0.04676808557390675 0.23764673056557473 0.0697144472032392 0.004261456617255272 0.10494777930751399 0.16970618090245185 -0.028651438686556976 -0.1511694688319062 0.07059679067009779 -0.28669811996062744 -0.015954655146809535 0.06323003586064022 0.0278239347656177 -0.17347485148336964 -0.14346800779962843 0.07599175937800609 0.21685571718474556 0.1680057355675542 0.17313467100389401 -0.2958245843581368 0.11870052897778921 0.0495402688676858 0.1626063728763036 0.09715586600455553 0.02318585366556491 0.17152755335375103 -0.07464373875952515 0.005675322057690175 0.0225252226106816 -0.33318440878385563
a f t er</w> 0.010404265996079564 0.18140999057292695 0.0770837001073965 -0.1956209334096474 -0.17124152763038564 0.0056235280915939816 0.11725691795043759 0.16210551114768398 -0.011350576161391674 -0.028528094025550767 -0.10372978005236902 -0.02317378528379029 -0.09741723310148862 -0.22560870716987466 0.15189151607511145 0.18741238835574134 -0.10050326989873679 0.12531522992981176 -0.11408855683954032 -0.11211613869010191 0.39827084384338446 -0.20559072654664923 0.019109765973596586 0.03378559150623221 0.11234692384682769 0.03822439163031619 0.2557446638211523 -0.09591966238216683 0.04804452283560598 -0.12209113480434314 0.27455702600741994 -0.2215376420790762 -0.00513874314751555 0.23110358402048595 -0.05840541793436383 -0.08577087921766513 -0.08586227092929415 0.23184197070502968 0.11997976359064084 0.018254817900669622 -0.08260117273303735 0.09005176514812084 0.06879822702373434 0.10509838190790574 0.034845256982738354 -0.1172260490067152 -0.052901079539613566 0.09988789018456647 -0.18211909231547913 -0.08217416171462963
w at ch ing</w> -0.0960358737852432 0.0901663980973989 -0.027763214684746157 0.2573210714521058 -0.015064105479036914 0.03972162248201064 0.2985072743325198 0.15970341353370035 0.04309435810902452 -0.056539822452130975 0.32173850531795195 -0.20782458003408605 0.03736618669943823 0.10871660440368816 0.11788653664875291 -0.08568686214802157 -0.07122394630624301 -0.08186704999497926 -0.18306632907467804 0.13803649385508704 0.10487286002058169 -0.041739443734049274 -0.2822498873067835 -0.07705096897747918 0.043879843845477655 0.2746770681724965 -0.13887842085686883 0.20495987152109393 0.05811893952039416 0.07731441985104862 -0.058249220104993914 -0.08916241181633033 0.08945177160217666 -0.2207084173496318 -0.051047909117290055 -0.01633721652717347 -0.07293319791565898 -0.031664610347336634 -0.023932792935454753 0.26826560333879096 -0.17852311535778473 0.05641105702217142 -0.0974108796259505 0.17718687750713066 -0.08757571593819163 0.25037868638848837 -0.05121807884320307 0.0003878963270859318 -0.04980696667523783 0.03362604127558451
j u st</w> -0.09514930385639152 0.0367885326727003 -0.12897452643395155 -0.26895905390976094 -0.0634200620356292 -0.013600455387438573 -0.025196190720506165 -0.02545224527835455 0.05888360817395081 -0.06291861133213775 0.1554954496802296 -0.087055708479773 0.09297835141578734 -0.2701626659112444 0.0939161814773054 -0.093467805642187 -0.06711595316229911 -0.02143632110638088 0.15992565985307258 0.002920837821109231 0.08648329632804777 -0.12686469607629822 -0.01640529342444473 -0.11775624523075953 -0.054769053345900424 -0.006883764171359618 -0.017083328599475922 -0.11417139802259504 -0.08717886047010395 0.1655614384045444 0.10056261100979166 -0.2782028104192036 -0.05605130325516447 -0.04029310045656015 -0.22445079564541134 -0.36268404886740324 0.0039934327541991015 0.08738776509729149 -0.2943413669164517 0.25994745513085626 -0.24620004123562886 0.02730586232521286 0.05058274263953266 0.0040458184587412165 0.08757721734361049 -0.17237034137557133 0.17666115464902063 -0.18716166092100953 -0.10044578646217232 -0.15301866668932335
1 </w> -0.19000658715878796 0.048091135593694476 -0.009791848333266413 -0.06970437408215538 0.23454282012164462 -0.30154620331245807 -0.03562366356478522 0.14321890635578058 -0.04163027876798394 0.1394404446876037 0.029184532057958287 0.1178602162925839 0.1407862951066453 -0.2780851118251913 0.1047388225499214 -0.07529980772672865 -0.14262851570011073 -0.09876381258655777 0.06536347561184212 0.011222824488870112 0.03194123623906128 -0.04169111401201931 -0.011558503464862509 -0.10072755275816558 -0.13784652724739468 0.2760684307209352 0.05439542954537614 0.21963422907593136 0.12104221637575661 0.033549776768144045 0.21089187498278353 -0.0870440178619476 -0.022800691261743975 -0.0005196283047567537 -0.20952891083338487 0.13529138995085271 0.14874940509547094 0.14599012766805392 0.1570770906518935 0.1922965891377366 0.15699572101134762 -0.15978392713133246 -0.0651292664249795 -0.10873483371602752 0.12253447152677532 0.03617996716471308 -0.30458114564813965 -0.08036548721010278 -0.11922957749367301 -0.1165888662818872
o z </w> 0.11348890810072237 0.01610144090574002 -0.2640724118329555 0.043872594620499424 0.24861116487704749 0.018796501161633138 -0.0010052422892658632 0.18133575733169163 0.04044523408224845 0.025342441071787975 0.017680907589533734 0.01813602369782449 0.10762714322762917 -0.063859371058386 -0.045522930564204644 0.268410494684881 -0.08838228292313513 -0.2004919570252966 0.1262495993865242 0.2206652980012116 0.2265736393326154 0.13575507094331413 0.06028807527398596 0.37393522858905864 -0.09778123824051009 -0.013753203037420877 0.029253649470537487 0.2522223522076595 -0.06992386441201669 0.2949195784320689 -0.010263534410453485 -0.05024435160630174 -0.002556501981185045 0.016554165973814226 -0.052086853155302884 -0.08204561849706049 0.07928627079063684 -0.016495246690092467 0.10665291392640562 -0.034199136037035116 -0.19359992521533217 -0.07580957040595898 -0.15568114976540678 0.1569922020659773 0.12632041185629375 0.256513661540864 0.06710602536845442 -0.01555292359034852 0.14524283640927405 0.06585680969941517
e p i s o d e</w> -0.14203580300758428 0.046549942405869446 0.03722354968881627 0.12757389512311787 -0.006729229352730766 -0.41609514411810844 0.09116359022037138 0.004936733930461272 0.29703286468992035 0.15608888246977565 0.08396641827209407 0.04666114797183999 0.1557141060672499 0.0039266403515474495 -0.012947137166043655 0.01032982257598806 -0.12077380096135683 0.08338230635180624 0.022459679318653652 0.2097644306290248 -0.15046337725502484 -0.03800486826768951 0.10623951349747493 0.05467240069596469 -0.14085865086434066 -0.16752526027224213 -0.19119019625600683 -0.2830521151894138 0.1529679090947789 -0.053165690725379515 0.09388241574252061 0.027262807340386556 0.03758495360419755 -0.18201724026746624 -0.04238968349286389 0.1256548541499957 0.07192000361850731 -0.0742337979068918 0.0011376104056904546 0.0802564785605066 -0.07111960932960519 -0.05488163238303144 -0.05837920749289929 0.043508570344651824 0.14276145309303526 -0.1433142325537422 -0.29375936154237864 0.1270893184037214 0.23596437082300303 0.21375285601464417
y ou ' l l </w> -0.05798001835371743 0.11713182791992045 -0.037506483360663395 0.18795898399560415 -0.2360841994155797 -0.04419216183643797 0.12047216581004588 0.03384813035804259 -0.016237042503438215 -0.11485054485344756 0.03609879070113448 -0.19460583813922772 -0.10905641757413147 0.19539824574202358 0.06259529876962809 -0.42209358971831157 -0.09640075517597682 -0.025038658988580816 0.036682615968023004 0.0601459119124353 -0.0949576703506621 0.060159580412564605 0.01596258044378606 -0.30240563923235225 -0.12113755609783129 0.26681535732345857 0.13139312188069704 -0.05615694225684563 -0.11113796861673313 0.0947116977699695 0.12755320131503384 0.20103503347654908 -0.24658539745505714 0.03436239600650617 0.03416876356638795 0.05821228870996767 -0.10467417854387132 -0.08019394138166092 -0.12678650687610662 0.10131519668015078 -0.08927243748430824 0.26696309558953407 -0.05156030384176112 0.11784044221084734 -0.05830730559012561 -0.1342812895331329 -0.11907291821722582 0.1606053683603701 0.11505622574902925 0.06200671054625426
b e</w> 0.2942864910828658 -0.07558149576152125 0.11304830355163017 0.13190942110320097 0.1524051130786256 0.08248122559972454 0.006533768574399695 -0.14415972972117944 0.1424397976707492 0.2554695606435356 -0.01468942740754113 0.1202168538395188 0.1267455585595297 -0.1498573331080688 0.12751548267843546 -0.20403829898993328 -0.1627250619079334 0.268558015755836 -0.1904225323247919 0.10464641999360363 -0.03365872866276981 -0.06346068682707574 -0.31944795640406315 0.08303014807597717 0.1894628165498889 0.0924904444211754 0.17423786308143657 -0.15427774247571063 0.03665784361533461 -0.03286218675432043 0.16555872328897334 0.043034373879956525 0.22663352124234162 -0.03267672319053616 -0.10571007133500472 -0.09633956247481916 0.1927633282736678 0.15118605915580346 -0.0051541829116794015 0.06648442332927273 0.10799028968803041 0.08778044776754791 -0.062163920928712035 0.05886573045892338 -0.05613144765735026 0.18905759266856242 0.17771263062760867 -0.006214906015730637 -0.016570874373602038 -0.07047678155806693
h o o k e d .</w> 0.019720784597303243 0.007840261838462165 0.012539094098125104 0.14390151639970492 -0.10540500688095036 0.1737612110827171 0.06312695790002114 -0.13595351470426878 0.22521440978435897 -0.11060954033670989 -0.01934631042749079 -0.2906924271381506 -0.1925168407843728 -0.09545494454594385 0.03812852450986558 0.2128539298771593 -0.12318365727961032 -0.07296283927920666 -0.10702166274785717 0.12027103644018143 0.15729334314564122 -0.1020582825817078 0.055015458633932514 0.20869650373511478 -0.07795266439235791 -0.19312332166773669 -0.16774449231670283 -0.039460713016245014 0.19171884615798998 0.03884824357611069 -0.06912720860515684 -0.0073598962493881806 -0.19080783879248045 0.0653651163337801 0.31852128308669286 -0.20842600364259453 0.22848450043285132 -0.2758475756529859 -0.03736544757318999 -0.04639735295672611 0.09896300938324552 0.13968891419786225 0.06727478661053994 0.05097329922690917 0.0794679242084004 0.038044281327597046 0.17381388939057024 0.04342501336472602 -0.13406908567388817 0.1346714676458091
th e y</w> -0.0030207930959841797 0.011446579609188875 -0.24325523843626295 -0.20732723066480177 -0.23412584947390752 0.016349383792935875 -0.0053127774147576036 0.11813346523035534 -0.031950551949011835 -0.11584313757805274 -0.1032568022560145 -0.04770975741672413 -0.05147025482710306 0.29029179787122966 0.12380183609703937 0.0978386527885951 -0.06345748805126399 0.18680098661474936 0.0638402432206342 -0.09337380217321152 -0.33177416008381544 0.05912946591273913 0.13574436288525363 0.01091218695217963 -0.03980552773509744 -0.07287495548455197 -0.008309291563615718 -0.17423216117015164 0.12046358079585029 -0.0960915129182185 0.04740156093888111 -0.19518972681914692 0.011551515692342995 0.10467000769044911 -0.22557357079963694 0.07633255687419498 -0.047533070604724344 -0.15306202363282156 -0.1061204384836802 -0.15804095091853718 -0.08485998230758836 -0.26767106621903225 0.13292441075382916 -0.04093296359171752 -0.12045895691094777 0.14470412925911755 -0.21716045683232507 -0.3026829083007955 0.038199205464792114 -0.024348490630289817
are</w> 0.00716913335060197 -0.08130355512900733 0.05033351575693365 0.04033057856847145 0.003540177997383823 -0.04224107487742687 0.08278474388529616 -0.18610323005992416 0.17045469389149495 -0.1257071234944227 0.024004347544092003 -0.06500425126453045 -0.315017560978926 -0.04423786513870394 -0.0554822014856857 0.04520888620167284 -0.06374902158856402 0.2869557448625165 -0.09113993821323965 -0.06449846909770403 0.14110456106571734 0.016647222566267123 -0.16439529199077726 0.08403652499810213 0.01939238693511688 -0.10610645840446424 -0.27166125533420704 -0.11567146012878414 0.14057145058390835 -0.03685358549669233 0.08645571329879792 0.05661409027716943 0.43421093510603054 -0.10527550833038002 0.09795976867395188 0.0763181996641557 -0.002019553313177463 -0.0485953281744754 -0.005473655008193393 -0.005618802693858994 0.12539696758559093 0.17347697213263882 -0.0816958117650799 -0.27438306800269263 0.05692135037859482 0.09607468919999915 0.1113475868333537 -0.11188478460814404 -0.04663577420469611 -0.3483489216211534
r i g h t ,</w> 0.11999596464253173 0.046422092583433314 0.17321081900936772 -0.18651234823549132 0.01977631363398372 0.2309354603112636 0.08848515586284196 -0.1562806987086316 -0.07692805659174386 -0.029753595586227456 -0.06894166425505072 -0.044300173713199525 0.11705174596756378 -0.06432178592351816 0.09342097415624338 0.04755496930928475 -0.09156018518816614 0.21199381512240342 -0.023590363682684756 -0.018716104968614502 -0.335228721381099 0.11383519345850716 -0.1267883452117188 -0.0911112306753555 0.029781774729089196 -0.005778673476436624 0.05849592804789341 0.17971236150884026 0.07708675766054904 0.02470123715820207 0.015383022590284665 -0.058848915506664955 0.2519797208670846 -0.04903315140978779 0.3955990706786025 0.29221230806815257 0.0028859103939549405 0.2740025846178281 -0.083624961413004 0.027931859301795828 0.013116269918845954 -0.1862250622193724 -0.13183889563372161 -0.19385418600471224 0.1387982345030759 -0.06769601409477002 0.12459953345064503 -0.021964893535505476 -0.054011979493608676 -0.1275570126623518
as</w> -0.05035009579946077 -0.08690785011188902 -0.041181933972357546 -0.1904042052183013 -0.14781628358108806 -0.08433464929269724 -0.019734121107912714 0.13039204077527805 0.06693573541857495 -0.43958539080378384 -0.2545647800453603 -0.05028999099248596 0.12606623014997426 0.19826132621288153 0.1932610954602307 -0.18058202747675936 0.10247339411010394 0.16292797126643552 0.14751198437329016 0.030637318382533373 -0.023265949967360675 0.010184664562266752 0.21512271547644576 -0.21802543513177572 -0.030750824980892266 0.06452916859732462 -0.0279298356092421 -0.18783907626749435 0.11481456675147585 -0.0713708284560058 -0.2901918248771033 -0.14823069081168933 0.019078877237654886 -0.03953083429699052 -0.2573996123169243 -0.10185856672422103 -0.038808932664810766 0.05945991692275874 0.09976646742381008 -0.06803352432447847 -0.10156662692470045 0.1303187597324808 0.07310668328858895 0.1661228769780716 0.014817521862715906 -0.008691386268180362 0.15001496918797363 0.047391779730835214 -0.10994621695131139 -0.003340317339543976
th is</w> 0.07763423600594813 -0.03993834416852948 -0.03388577632990685 -0.1958915956805272 -0.04073754742433567 -0.08154452691989938 -0.30741994768311376 -0.08176272933552786 0.27830479866384544 0.0330104742481691 0.012351356959706778 -0.1284825302761672 -0.18810669131612212 -0.046706644939047984 0.07297622087467698 0.02167784385546686 -0.018372878602225647 -0.10018694500127506 -0.24273258443292342 -0.06882205765322348 0.1073577204752519 0.15094460061372672 0.14410470856793287 0.007231646375779498 0.08036494665894911 -0.12822832900260545 0.02457908385751459 -0.03496625175866728 0.21550019030596604 0.18050324752745545 -0.2649669076828247 0.016572165158493208 -0.05614542865132279 -0.012049521595455581 -0.18126771955676424 -0.32508637378976607 -0.030836329069361276 0.09675412557871887 -0.04403637080186755 -0.21626813348596668 -0.08858016754792852 0.12085378562466775 0.007482349773129173 -0.07881921671837183 -0.15118101896739586 0.04805992195602183 -0.17960288175873165 0.27074333274755413 0.050649723035930086 0.19628815888341064
is</w> 0.14444380512696003 0.014079672741303138 -0.11706088049998804 -0.22960994407286872 0.040761587437444145 -0.15087915667177001 0.06959099344940663 -0.27426927965493686 0.043370395425537285 0.09457429886320966 0.1027428387792182 0.08843345205765275 0.317599616381266 0.11150921457963742 0.13215962335853582 0.05999151056642481 -0.31014295603402064 0.06709175035234499 -0.11408589789799024 0.16906184135430588 -0.10902188485699678 0.07030199586868698 -0.015034094228659745 0.3189448097164574 -0.022740125655517182 0.12089495525721117 0.12931843982189078 -0.1319270650651558 0.07604639980231825 0.2735586057539422 -0.07360553325730981 0.03697224893841978 0.19670007661989794 0.11717360101757236 -0.08836215574101186 0.003688725972108847 0.08054916902187714 -0.06287166121317543 0.06810595912992204 -0.05307701581213482 -0.270088062890575 -0.07210963295171108 -0.19143996197803406 0.009439320013252489 0.1562785026926222 0.0065576998953495395 0.05914521525787614 -0.15299663641318434 0.04553276679797826 -0.015825790846286523
e x ac t ly</w> -0.04472380492029289 -0.0012119234743177732 0.14990946453293985 0.2397283445960859 -0.19247870916320306 -0.03465209080781997 -0.11374033305555512 0.008609308629146249 0.1491338741483712 0.07880344730845854 -0.14203855860190912 -0.20882943288866251 0.10643074715910152 -0.1903688069272885 0.10230827186380527 -0.29640625268159404 0.10440231220570963 -0.18908756943179147 -0.25556765993849706 0.06145862548017014 0.13232827115996418 -0.13954535140829882 -0.14113904533783098 -0.04861337455073414 0.052899265043015245 -0.040312277212339355 0.18797314439538318 0.020527801494654028 0.010884975113231651 -0.2288496157326699 0.042474149543549326 0.039078758577522826 0.113861243593441 0.08895499182285274 0.08705951556005342 0.10316212206325097 -0.28827672847592023 0.04625185667909018 0.07100724177337614 -0.17188075832529143 -0.0966928784227946 -0.12478113726754288 -0.026080424750428006 0.021241123275070575 0.2645821945698777 0.2058820259188836 0.23278178516933445 -0.04952065516187245 0.04771075018503084 -0.03701481645600326
wh at</w> -0.13941580074392415 -0.06827067778625133 0.03991138359063059 -0.07459216269827716 0.016253293482405368 0.2773405089280602 -0.09148051838686667 -0.19871868618127528 0.1678480349426285 -0.09276334194147265 0.04716962096237251 -0.1250166512961447 0.019137819077898674 -0.1237502719127454 -0.29579615702200074 0.013815466912436269 -0.14030755013578286 0.04663404889697079 -0.05119124375882236 -0.1539196152784653 -0.05214617805479463 0.15092660042547193 0.16752543427625757 -0.031669528568267206 0.06706547088806412 0.07222092240964802 0.2247771769981453 0.044495836110541476 0.09908244045863208 0.09883199660195191 0.00905565920460346 0.030242110347581196 0.002972367432756732 0.09073605803735325 -0.25964915062926286 0.09803652147308989 0.12096639631298574 0.03285668587036707 -0.09073204536172318 0.480036134071393 0.16983585237535084 0.022038665924926787 0.08919918846505338 -0.03930390158921724 -0.0697294565578636 -0.09060086374968832 -0.010358302873665888 -0.16084067785339826 -0.11572658690126807 -0.2631477277798936
h a p p en ed</w> 0.07777600885112852 -0.3423458074770056 0.012513192100767071 0.05448999054634094 0.05012597975702663 0.09566471744774753 0.16651958126125446 -0.07977359564204138 0.040641236222121416 0.10480845297370743 0.13355836957553943 -0.14162235983332705 0.012178660115670053 0.2502008946251379 -0.2217152317772074 -0.00298650795229755 -0.05018122931348605 0.11038699221349217 -0.20856974295081263 -0.029385087883510016 -0.3172893786812792 0.06748616876721474 0.003511870422252086 0.06356276165300323 -0.1683490096059749 -0.1891980059698927 -0.05105670487009047 -0.09619860246919132 0.02353769390998686 0.08350392402821934 0.009186575062476129 0.24304998221225477 0.1382174042254986 0.17541440077029483 -0.09606868389457787 -0.19766389246853192 -0.07628187870400963 -0.0849803050844352 0.14559909739033522 -0.21726900345553424 -0.15713694628191138 0.08655196037227535 0.06868362685970071 -0.17949300189992576 0.09165037600254121 0.0960083113999102 -0.22568271293438794 0.03906776285431636 -0.15585065178529972 -0.10623620519247945
w ith </w> -0.05994128816149555 0.07915479215866938 0.10286307976958835 -0.11718891815628263 0.09862053317465068 -0.06638970288482535 0.28831999776063444 0.11982211092670865 0.06991087130876085 0.13657950333734395 0.08353344537019307 0.23801016937617517 0.05149164950754065 -0.05273445491512521 0.10250030760296297 0.0997888070065353 -0.2385361767140471 -0.11310967309709455 0.15861949596816458 0.02384507364916013 0.24516482577927448 0.0697187530338056 0.01202790255968533 -0.00012402118306029035 0.3429680643387239 0.07547488108009914 0.06230741755414618 -0.015783011198108005 -0.28011472777224816 0.035378981298605505 -0.004658333044061295 -0.029852377351867538 0.1448753069905877 0.11748995104809247 0.20266640604409225 0.09808383659689497 -0.24610949686862982 -0.3105711317840644 0.07228184725799129 0.0528145477050686 -0.12991401775234063 -0.053973301186550776 0.17705765654611935 -0.06272976911852685 -0.21704232743162527 -0.10706149538957323 -0.010628306813276176 -0.014922352089079783 -0.07804387168570859 -0.04393430666384109
m e . <br</w> -0.0802913644772315 -0.029887858397092053 -0.08254231105354312 -0.16762065594881798 0.006159743170694652 -0.12854463715919529 0.16353036078096433 0.04301053386610976 -0.024469281321342632 0.06522434846767382 -0.24371665817968938 0.03463352271967582 0.1490583771860282 -0.22244648541268333 0.11502477866949218 -0.019192750712204193 0.10369687038538311 0.14135459114975615 -0.0635082876214559 -0.09366843334093541 0.17157418858720397 -0.028170510109155958 -0.09110843397205726 0.1505435905881638 0.10099610798839449 0.023488790334948315 -0.2805862631769428 0.12408530066522512 0.17549401340510545 0.11124205697351024 -0.11628819285101218 0.14698623113376244 -0.21837906482346991 0.04893216848174082 -0.27185654878719534 0.23087319514049315 0.30527841988080484 0.16034713737903056 0.18755344932471002 -0.053412232602861244 -0.12140333244320914 0.010160063524521706 -0.18505051406475392 0.06394114441230943 0.08290651059482819 -0.14463341084953577 -0.1996902017703147 -0.12660833236872218 -0.009174137394853368 0.05241193861711046
/> <br</w> 0.061128901073992464 0.08516607779025222 0.16630829537479047 -0.03272399732205136 0.03968934025112079 0.10484035951943588 -0.18934925953368129 -0.11649772113097727 0.09936812756785167 -0.0784830342061687 0.05072436252847772 -0.11493392526825162 0.11930390414625526 0.1001023715597065 -0.24263632859120174 0.10562161764882376 0.05868699443263085 0.09320351404878618 -0.5417653231803113 0.10840998786586155 0.06565099649937729 -0.1146218138322918 0.1122446911548017 -0.06079075874294964 0.11759648192483814 0.060120488846300384 -0.03530541334416618 -0.10422985064645776 0.30624072545228126 0.1519969201549887 0.14311727144451802 0.046140770851896766 -0.09878759048046402 0.00896730336060445 -0.06613648763337801 -0.11895931615704174 -0.07528444265360874 -0.00843328364970286 -0.013878209211828094 -0.1338190640617107 0.041762528269164476 0.007290180171781743 -0.16888972212187278 0.13858528219174762 -0.1658950504146458 -0.0966036609931771 0.1215568294511063 0.2942574237784139 -0.05278696544452456 -0.09627401830035771
/> the</w> 0.230928668226201 -0.06795077491010307 -0.06382336557361552 0.27827312441443136 -0.09960570079971671 0.3398862804858491 0.060914678128724586 -0.21102752709382552 -0.05798275533768403 -0.019018201766137846 0.1423566545079726 0.15116540467634174 -0.07181926743733245 0.04618868758323013 -0.01732140166170281 0.19992770156554107 -0.13484000807174712 -0.14773954075929252 -0.1528484664723233 -0.00641438472794223 0.2816287347917583 -0.3410303204273432 -0.14172177653936863 0.07576943157472872 -0.025884567990891564 0.0019926975435485402 0.18023321410984827 -0.11233700828831791 -0.12685242008293457 0.0022504898010725425 0.04971893504621247 -0.2607918481571429 0.028565642463349722 0.04996634555182862 0.10100035072359405 0.04454845613131647 0.03078727475286652 -0.17067584687848275 -0.020326874186936846 -0.04958387375435711 -0.049236150045977395 -0.040279253916090066 -0.1741977776059884 0.08833222325307317 0.09529474084163707 0.12817560418098903 -0.06597132638038196 0.20446633567944997 0.0814275815999381 0.0793753160283694
f i r st</w> -0.06566653127158831 0.15933980208338944 -0.10870190890192935 0.008801023669751344 -0.05446668276889937 -0.12386322389173025 0.008521004474831048 0.13467167055011137 0.08864942094859818 0.027682585296908688 0.15160747692772805 0.02469371424296932 -0.15599995180346357 -0.0005771589103094787 -0.18217378283884705 0.12565716694835333 -0.13743373861389932 0.0024169579837960606 0.11460767267717731 0.010461049479642166 0.09887481287538247 0.032271570193328464 -0.0028281287999431352 0.03705688754887498 0.08018631160318915 -0.1970080377269788 0.15503545833669233 -0.0996152442181353 -0.3466844540294406 -0.18379430690049006 0.14356788573412774 -0.16860694460550174 -0.14413439248469148 0.021173184710914058 -0.1052762627318763 0.1488519938933366 0.09797041989206651 0.2736246030899136 0.09503073492987528 -0.09295284362997187 -0.1720758927778999 0.18945405539014026 -0.11401885644129559 -0.02228725765395508 0.18218964096157134 -0.3628697080181179 -0.03242528565941293 1.9665342123380115e-05 -0.19882668780537235 0.22079841197388902
th ing</w> -0.060191570921554326 0.11899337215760512 -0.03559158034688976 0.1361495326022067 0.1462396347923508 -0.08855876245715642 0.30052259843881807 0.3138591965910377 0.1259317985974246 -0.16223323736713333 0.004013778011705052 0.03260825433250479 -0.07764090888105009 0.09320740036910914 0.03628011306733858 0.00043519992448810395 0.02077234566255043 0.017694755547741105 0.047253353487653985 -0.3224962907827919 -0.1034163276627421 0.12678053134715112 -0.21430721751064916 0.145906582951734 0.09072437550584551 -0.06698435743980241 0.059553804420303134 0.23886905670392367 0.1448913633690286 -0.0430096709314615 -0.07157141314105697 0.18777875499116448 -0.02869895369828155 -0.025553974014992046 0.06329603653970743 -0.28824717972192704 0.19053337863939443 0.06162333875689776 -0.0847406381216825 -0.02152333861607382 -0.001955922736477144 -0.0044069444352380594 -0.07726198471068312 -0.0009793174832433847 0.004326172651421496 -0.11061701286891457 -0.13046257004790024 -0.10113326883278428 0.1025284795016276 -0.39399930574729375
st r u c k </w> 0.14863856636234293 -0.04957411092082707 -0.13320798687446533 -0.026988678718957854 -0.1079887322319654 0.009459475750028663 -0.011256900782256536 -0.1466141765866707 0.022234927215806125 -0.16465023601007317 0.06109398475121849 0.039518267352728974 -0.40762845931167485 -0.029134690998956207 0.1813076895424386 -0.16789830709845308 0.04953665177228371 -0.11793422436152078 -0.13933497159727878 0.2596287373911277 0.010189674808101392 -0.15295733565612524 -0.16308047880237037 -0.20841824859184116 -0.004174852680576383 0.05524868932225672 0.0564681178009571 -0.030035605786780297 -0.3255330177296386 -0.299937479981241 -0.00810047930727386 -0.07687761749691518 0.15162504327687643 0.026357081671829725 0.06568625444355165 -0.23090266504924825 -0.054777779141028445 -0.11402293303620574 -0.05968449781460804 -0.07726161492169678 -0.044190267007787734 -0.25031281353193624 -0.10792906500356222 -0.05681814765648909 0.17323386393215628 0.13639993899470004 0.019816579035520865 -0.06061673905430452 0.08972901256255922 0.09887509615181198
m e</w> -0.06050694718864153 0.17447621076576184 -0.15245072962182518 -0.14433176440555368 -0.16496687301061236 0.09919210047511462 -0.09026966140344792 -0.019869436399535916 -0.04672007982065579 0.1911025226075286 -0.0885835484320404 -0.25732081778892113 -0.13350586377942608 0.18325122342623199 -0.1517005078202189 0.035143360542496234 0.13001283701676003 0.0003497160951004636 -0.47588924639479885 0.013776581039335664 -0.21326798038339712 0.06264594089043798 -0.0943391522553859 0.16591028468496757 0.1089821673121677 -0.006276427293296597 0.0288785149238143 -0.11977228647867094 -0.04036647662163557 -0.17960369387206185 -0.24732318181292787 -0.04611330159928199 -0.18364970182312487 -0.11200722066474222 0.057117539768028636 -0.18935381175900878 0.0440336777802302 -0.14919610020781843 -0.09856768806762539 0.013879282368174118 0.012123477125097605 0.04227757662494019 -0.12094606873621326 -0.1676346660910396 -0.2288310703605466 -0.07377608887164293 0.07397779826694138 0.03283815804637441 -0.053797877357348624 -0.05217867560815513
a b ou t</w> 0.0912268603530164 0.19823893338635068 0.13376742338460956 0.19504608002975832 -0.15407890444641573 0.2284736760789337 0.018942967637012798 -0.08127444885508381 0.22626498088367994 0.31422392425088064 -0.022053532733395862 0.1199244171273457 -0.07374774194446768 0.033040968741970336 0.15897066319843625 0.034634764659082606 0.01749211500628746 0.008375755542997998 -0.12929068081071948 0.05338279946099 0.0280438767822558 0.165485144048288 -0.09215652463712919 0.21030637911970754 -0.09885963502600792 -0.0035502142962063102 -0.0029430598275474824 -0.030712613421245295 0.07497819153498296 -0.036278057717567744 0.0052310013132922375 0.03644501006840523 0.11960835651282217 0.05906978283191464 0.10794386537299533 -0.049476107606155055 0.38158989348552635 -0.1119316143798238 0.10942512967614212 0.24418012417422133 0.21842895747122998 -0.24373374118924987 -1.595690580210541e-05 0.09503394326387983 0.053922102605730146 -0.11996563884061254 0.08632738874189565 -0.17452242473122972 0.19857477995381115 0.15311889655666763
w as</w> -0.06874614824065724 0.27937651922539536 0.24790801751052952 0.005609784698694632 0.0018022164599276395 -0.09168510827104624 0.05922328343724574 0.25216940980692143 -0.026426523203442097 -0.049683906696678194 0.0008103339110490911 -0.17925526321561097 -0.2376002245730479 0.021634495344818087 -0.09411440756979153 -0.09738531735964141 -0.11110003840576488 0.03347709752238642 -0.4103559114770961 0.037221768881880786 -0.1350792972197496 -0.07316673293164085 0.02433562972883847 -0.2769726936707569 -0.17257146050950445 -0.12298408296451684 -0.11391275954714124 0.019543545188975893 0.12695129456268708 -0.07239565911816713 0.0014131673127279639 0.0576886172534546 0.13533677494626098 -0.07596502488897078 0.17953458275339015 -0.34036940171407276 0.022118782071290755 0.0847656330599242 0.06736941655813454 0.04978120978208046 0.08505320916755378 -0.007558535491672188 -0.0799897171784644 0.08089191149574597 -0.17595287311756933 -0.09447818969736894 -0.02360212794438436 -0.15411405445474521 0.12427081651894221 -0.12582651082114932
it s</w> -0.014239543354343324 0.14860973711067832 0.08631170389113116 -0.07482272187501324 -0.1662039875566347 0.18829845689637525 -0.12540579283673733 -0.06396459049536786 0.08949252669888542 0.002041860331546226 -0.11355472831729474 0.05874848840888539 0.2455802034366248 -0.07906617238952383 -0.09418512157010335 -0.04342328675977786 -0.02732491662780921 0.046045817229283546 -0.1357549298588261 -0.1947607665864153 0.20739164318462333 0.058800813200768055 0.33092387458879713 -0.12988721439843362 0.10569804305050269 -0.01654144723733892 -0.16420727727666024 -0.22230160651799305 0.16138943259616612 0.021983350654630293 0.05762566655868105 0.35551857444078294 0.006654889754398097 0.1565528417059673 -0.11371768579125474 0.1635728818752642 0.07272740887727536 0.07816309209319164 0.12601988022672414 -0.05904282022512441 0.15582677160092634 -0.0986511073101684 -0.29846356899959914 0.09261296679859463 0.062198922905582155 0.19553062807255503 0.001704712526365672 0.0357922640569785 -0.1401771369349308 0.11927536098382807
b r u t al it y</w> -0.061435101191034194 0.08236176903194871 -0.23081806827824378 -0.07729480150013919 -0.039331571564665636 0.042247869395624235 -0.0868280048369363 0.21438130578899728 0.11383327537394759 -0.05883287782744188 0.10776393992628502 0.022424861599821832 0.17385879354548606 0.24965147194367374 -0.10635254910344225 0.06296578825223838 -0.16708096272104556 0.18628425042996755 -0.07267326993521309 -0.159406908362901 -0.08226735218873775 -0.02284979258281122 -0.30556868331111436 -0.07151620978806372 0.21283997820007777 0.016139116403072088 -0.07404433419190677 -0.02491797875688506 -0.06099015253937604 -0.27098207909710037 0.29795594195800484 -0.19048543011122315 -0.183213273549667 -0.11483255240071187 0.05783577765912477 -0.12511049478283684 0.15686076369675045 -0.06548025037814693 -0.08427693671329443 0.05532260934405028 0.14560713926323937 -0.11354498614640371 0.08682397585668623 0.15369445136394416 0.23851876428271698 0.20031371856827146 -0.037275554610592815 0.07640104774640384 -0.0986103944222513 0.0017033433557288099
and</w> -0.19768124527506173 -0.025235829733410056 -0.010143424079084163 0.18941087283415348 0.007512420379156936 -0.1255640555184344 -0.22705645562352939 0.11998034108736762 -0.03230008443746458 -0.2357996118445069 -0.019999798253630817 -0.2413898625884141 0.1644055225357574 0.0017518001062218728 0.21036459332053672 0.08278070586382195 -0.12447458405708187 -0.23220444691734954 0.04546824312605707 0.0884855606529424 0.07094614587344776 -0.17520596798410099 -0.17069762142416692 -0.008982488851369678 -0.11994637986491846 0.2505192841808143 0.12094350924697253 0.23680262410270353 0.027157771515487098 0.024784793997590357 -0.08848457314764217 -0.10928968777334638 0.05525824246142366 -0.1019021592544489 0.22189138909246736 0.08453568492229692 -0.060090389929357696 0.14624060002156705 0.05634672943121535 -0.05816790118272458 0.05014634600976455 -0.04857246504595526 -0.04906483711786677 -0.17501882340214 -0.17509631150975785 0.30243778413348554 -0.049502749905542515 0.0007971843645334999 0.26716054286556606 0.024611598368818727
u n f l in ch ing</w> 0.11827196361497583 -0.2766694652459501 0.1381763592068507 0.0472492151464342 0.013360768883169359 0.08376668252520922 -0.3053579997102063 -0.1467741023372546 0.031357438158707236 0.20688527411787663 0.000471981913758705 0.08777298773590371 0.06674445942636113 -0.0030928349580172216 0.02787752626003096 0.18799611277432607 -0.0073304570547738646 0.03972313028559941 0.00746842244739789 0.16896378021748293 0.10584780360134723 -0.07355407612693239 0.05961828413715571 0.09755426423465002 -0.0779279539224347 0.0914099618666925 -0.031344023341538456 0.2563310494632487 0.24417355645669264 -0.059133389234429075 -0.255637100084854 -0.08969237415182217 -0.06403197733177571 0.060930387419490306 0.0919869564220654 -0.26226895669840167 -0.031017424240715758 0.013292270280008296 0.21848686773823398 -0.057923283020838816 -0.10780532676419713 -0.07274657051748808 -0.24061669910532427 -0.19217057270204035 0.12091049624502766 -0.10715095761336484 -0.05340861632296597 -0.18768853878982497 -0.20915803460198767 -0.19894362832288776
s c en es</w> 0.10650677531256243 0.14511792747775984 -0.09526971283280862 -0.04363401434144483 0.0982102398363226 0.16652862946953773 0.020773866746527776 0.03324011854367166 0.17622982460567 -0.052202652405881074 -0.18840639802393183 0.13290076501280726 0.13728583248449924 -0.1205613223787683 -0.05786088588113286 -0.04747377096502754 0.1109003509332696 -0.060119238499441195 0.04374568347654501 0.04835982767567093 0.3058064015326901 -0.25092048511274206 0.20103781663625414 -0.09724947057752518 -0.10342516017962076 0.07280528572800629 -0.0987919445358242 0.12199085677764102 0.02505349799049168 -0.043260982185045226 0.2882996041309372 -0.23804309082806618 -0.09189171241335155 0.03779233420455173 0.24067356018729463 0.12902350518336522 -0.01501775002223836 0.30156069204208963 0.07712116348171906 0.0962550248397756 -0.16745715812060652 -0.05087562334889254 0.05690722275724349 -0.16675455251117396 -0.2015537169101179 0.033665841789222356 0.03241525189384179 -0.07717342094986934 0.28462117040250673 -0.00845020559714911
v i o l en c e ,</w> -0.02629068813854829 -0.0541371717596509 -0.2452798794021951 0.2547030366801062 0.024891248760139307 -0.05444978314754096 0.14212222503593494 -0.21380854081179396 0.21282528108055382 -0.16701145968040687 0.12508122000475774 0.08325052345570502 0.21565945114004928 0.13740420788890048 0.08603490412232566 0.15821279046425557 0.02149171427995128 0.23310713627199386 -0.053088531678804216 0.17613533033314835 -0.16639071869238006 -0.32208484435926465 0.05553523462188805 -0.135669781458482 0.09401661879774355 -0.08377380679704875 -0.08698462733085739 0.027223308804200708 0.1797185732770501 -0.19818196623151144 0.24092976877836494 0.08710505991012821 -0.08967798186914433 0.08033060979051011 -0.04450715163598435 -0.0030692764539701125 -0.08442185642813928 -0.11901739116433688 -0.07081501836307882 0.0688602286640442 -0.056523038389462224 -0.0989946743349915 -0.20639808746219887 -0.03078098095073136 0.014921336394148195 -0.2453439905942979 -0.16302765452863574 -0.10139215876338901 -0.04549501938105187 0.043663483059009495
wh ich </w> 0.033442996337367165 0.05197477138644723 -0.17564416885673076 -0.13156712450724564 0.06472374074526928 -0.02093115751247868 -0.015239522277435328 -0.06462552285373113 -0.04737665624951735 0.25382746157897496 0.0952374307723078 -0.24394630539834225 -0.2586626041418441 -0.05265382529571719 0.2679613878560015 0.15537666688002003 0.026883729160250006 0.2390682256167612 0.027004691030619275 0.05256044253364729 -0.1216468568237185 -0.03348108760281629 -0.10043068781708746 -0.0964563677930492 -0.33201497130035623 0.20863557113803055 -0.05984770575933058 -0.19897982233964231 0.10033856630796074 0.04967896493329777 0.14876846652725714 -0.03366229192844391 -0.1531715386280249 0.18780269642094718 -0.17788396508392051 -0.017710941124514955 -0.07817356484026441 -0.17809335446000785 -0.088600647831382 0.16549867474231905 -0.08419367940535316 0.11943816958583742 -0.203518863078351 -0.021831338495639962 -0.2022485149828514 -0.010719754723478293 0.19819877913848022 0.029750721914340725 -0.021815792642931167 -0.004584156273021965
s e t</w> -0.04184327474403096 -0.05148631716002194 -0.17068909561762738 0.1948486310662253 -0.04091245953140739 -0.15357388258873803 0.12256778605884974 -0.012819263062114707 0.10412426885000829 0.0863191468054577 -0.08051219810766398 -0.03205703516482484 0.14946187458688073 -0.18865661032000863 0.09829673828217546 -0.05757862899652027 0.2582615331152933 -0.20519321889484998 -0.09592996984709605 -0.0042129112070677325 -0.04290823545695951 -0.29268126040871184 0.13162056758470714 -0.059699319854124404 0.07091136362566842 0.22132551586173346 -0.02299369320991811 0.0797807101102118 -0.1091734306831831 0.04302321391747667 -0.04421506187114788 0.08021128956142634 -0.043460115602755096 -0.13136142603347972 0.05658681340433066 0.02313637708298719 0.10169523742788936 -0.07115458810890216 0.10217662816405411 -0.1876747811280951 0.12870047114789496 0.1763606117061176 -0.242227459235357 0.004905219047353826 -0.01879910899462641 -0.22571696714272652 0.22762993982108137 0.030442965119968145 -0.43301554421778604 0.0006251416112942487
in</w> -0.033402760461162424 -0.2720094799456303 0.1337243055779432 -0.11983691967717469 -0.19517995385654394 0.07346076727012092 -0.31332181119669117 -0.14481805723853391 -0.01231574017187114 -0.06944390502380318 0.0507030109641639 0.2405814824921879 0.04363156171306798 -0.11169823368444588 -0.2598383171931489 0.12905971875401193 -0.1467770779813055 0.02455463975923962 0.150055859837314 0.14313708539412018 0.010750215737861746 0.07048537901137396 -0.1155799111601566 -0.20020512664867154 -0.190143077605046 -0.18133933482572848 0.10577669213080751 -0.053968217373779805 -0.1211254531634284 0.09784432472228065 0.11876043928442134 -0.03304275879477572 -0.16212839428076728 -0.023605976977121464 0.2104795534764902 -0.007546568326742999 -0.07102638022540003 0.17682785919454364 0.11368781383061843 0.09418014816889317 0.26452757500427876 -0.01758537311432609 0.1766656277303166 0.016659697673171003 -0.1377537655059257 0.15761870241560694 -0.0688758377870167 -0.192106313812079 -0.019829534627536675 -0.053301176761672425
r i g h t</w> -0.053058867617097064 -0.04445132707982703 -0.062206836631231964 -0.016464036589450982 -0.1259391777502753 -0.0508249045749542 -0.0573251931376695 -0.13603584268570626 -0.16156863106622035 -0.14945194649505647 0.0224926200353088 -0.22458928169424752 0.3577639789309802 -0.0139430002341172 -0.21166757916968734 0.13199854445407594 -0.1095865104622713 0.04075620041064531 0.011188662880184002 -0.04073078886298335 0.23811384604788818 -0.27541436064381963 -0.020875563730570527 -0.18489381230017465 -0.029932412112410326 0.09913588332540493 0.09596995152352607 0.00210836361992269 0.007184764099435459 0.13450151310091876 0.2855835496529951 0.334740501997709 0.3077316129422852 0.022503427666098436 -0.11348944676170758 0.09887678102255958 0.13111704656299084 0.08793091597470136 -0.12277045544414608 -0.0039333245603508276 -0.12521653939158947 0.00832753587930523 -0.16416628445523335 -0.09785368372945558 -0.12004892724693648 -0.027243267749013325 -0.02097076661280578 0.08226546903509696 -0.0942378344802402 -0.07295555573539582
f r om </w> -0.0360308882720087 -0.16844046971600427 -0.10941237967913892 -0.027000458732141016 -0.2790737986591823 0.02528844931269489 -0.16597545379224454 0.004312070090264357 0.37865096922805386 -0.019199541460234996 -0.06064771731068929 0.2330342496128448 -0.049017474085414126 0.11041434332413781 -0.04216520098494554 -0.3922585955413677 -0.07362689413732719 0.0958766267024957 0.06704948725922057 0.07021520428240398 -0.0764302817895679 -0.15930801282855778 -0.10359288248730882 0.07273749171960037 -0.042946570055408084 0.036123506492803804 0.04913220851458156 -0.043113243393487086 -0.2382172922666536 0.0810889966622561 0.07045967797241208 -0.11614176083199187 0.09914797117343617 -0.07168066372408016 0.03579369616646136 -0.08245074610425349 0.1108835809023578 -0.12240645208092248 0.22883346911449293 0.06086561283916876 0.12259709084800441 0.13565349820488956 0.12012695539945895 -0.016493457937659644 -0.18023311705396133 -0.2090409285393243 -0.0016712264088902394 0.2596646459547072 0.14262948430319985 0.024700781471835232
w or d</w> 0.10642656888290591 -0.020528356948668607 -0.1632337944741528 -0.1920980484134157 -0.15260666103632442 -0.0589771789056719 0.046230192389595214 -0.10333148787098198 -0.15042584703171805 -0.41420266997787186 -0.3507188652511237 0.06049333313858771 -0.09144199459191824 -0.07671388504111791 0.004413062478551025 -0.00824147069197372 0.0695299626847465 0.06275224730724316 -0.012568108107670244 0.27141183460253643 -0.034878910214938524 0.05950229800880784 -0.003876862852538201 -0.18450209448026808 0.035067488007184795 0.15981372907985752 -0.05646571614813877 -0.2638248927182943 -0.22249084542170583 -0.1827035796006275 0.18539678691607261 -0.008104138933283014 -0.020300745940736508 -0.08506944587132789 -0.09598266098694097 -0.13472548874604706 0.17555691288034198 0.014053712059154377 0.16596081614599273 0.09670886765981551 0.028158251699706132 -0.015119367558272293 0.007307094040690092 0.0024323081862978597 -0.14945688206628382 0.1936762834266945 -0.07790609750063623 0.10728671872709296 0.13244833815650053 -0.11254843135361565
g o .</w> 0.27339530025557524 -0.12258311505763987 0.024637009119412592 -0.008390546919606537 -0.01671475375148655 -0.11153450795454432 0.020970780041095306 -0.0773023302437876 0.2825760872352317 -0.09520809966757648 -0.015208574166913173 0.07265168681495777 0.16946974121764524 0.09637706430148434 0.29204055416604013 -0.11278946659056535 0.01439611101814236 -0.002639888720776154 -0.1984474445412337 0.027066060707026034 -0.4265506454208352 0.08651435266975803 0.01874267192479631 -0.0002284020992210342 0.14992273794793587 -0.09616029832413023 -0.08687214658143343 0.17561853100509 0.0747398174325002 0.12736154674138894 -0.1581284558105656 0.2368964206666058 -0.028575477199334804 -0.20274446611195954 0.17842972032300897 -0.1068298053494587 0.08421299857590074 -0.07119475891530616 -0.053576379276158693 -0.24506938149246177 0.13369352360183762 0.0030530779324859088 0.03753326437946763 0.11824749405137906 0.029421616758949803 0.1368162112602706 0.12762836434831296 -0.1589241597461113 -0.0021994572343938426 0.04637400388866198
t r u st</w> -0.02686934951278245 0.07461352667477944 -0.11746500449991658 0.10650709232830266 -0.11697673955058265 0.01035807271943199 0.21792067791661837 0.03571944862023691 0.18034379118110289 -0.03895805454731806 0.10604055631382979 0.03387420647666502 -0.09311388750325153 0.05380371330922734 -0.0679799391709755 0.03360847293814062 0.1659837217953542 0.018718744914113346 0.2781153219183531 -0.3170921181679943 -0.1266802581833484 0.020094618803934185 0.005949483246730382 -0.4687334456330945 0.09615628446298431 0.06214398314319261 0.11638830760281509 -0.026808132412518414 -0.017396132729609177 0.08448157312124599 -0.021202704750809306 -0.018357900629407137 0.04006810029120153 -0.16410361626317282 -0.20613193100414645 -0.018291124400182376 -0.009140672859794956 -0.01593349145407918 0.19408528745081657 -0.10898617841234198 0.19127919796398352 0.28912710683015813 -0.004944245905294659 -0.01234088291933003 -0.12718281430119616 -0.28202168240985126 0.026148433874604356 0.12199629029283675 0.00713598748298212 0.10833418596245069
m e ,</w> -0.11789538073730273 0.05042660154602847 -0.1337985015453246 0.05023294985972576 0.13943465275371733 0.05979813133648871 -0.16117635624531487 0.13137074509339824 0.017843054554378922 0.06585730129995343 -0.06366995307388665 -0.05454046791095297 0.4576219647406739 -0.020939364037101043 -0.02506765981254853 0.1675597550868943 0.03691293034937414 0.06723038481489096 -0.24474935322151473 -0.034637742277332635 -0.027787432941731655 -0.08699805154807995 -0.04192109796680965 0.11478476376118002 -0.16447298673722235 -0.11181239123016705 -0.00774591949824808 0.01539769386046161 0.3233000557178808 -0.22568809212107405 -0.03256826325297827 0.05249565727500332 0.036202655040544617 0.28353114321660394 -0.1451254132926333 0.1768351371538862 -0.10999379657996218 0.06511282708257621 -0.10794005870647783 -0.02023068705590162 -0.19700606349212416 -0.2707239467810368 -0.018160317666748936 0.04025453922826908 0.09409256632560467 -0.0034083316080063463 0.15749975236756933 -0.11996266913073923 0.14275359092411202 0.11101843116286067
n o t</w> 0.1929152395710761 0.023742250334586833 -0.013982472697510824 -0.06175369679296978 -0.05977786604350739 -0.20746247398595852 0.2651399591140077 -0.04859748758238041 0.14411763956706114 0.039378366093072915 0.004466335239782002 -0.22425536735557072 -0.02849554980163094 -0.15070061688367153 0.17902136295521376 0.01974315621162507 -0.011082430812504518 -0.11739241571425614 -0.09089719000617885 -0.30465085095948774 0.08528503216487623 -0.06795712889366246 0.0651800640394325 0.09200060824345481 0.10574332617263238 0.060097949303840804 -0.14005421455961245 -0.04298179314269551 0.07539358099398219 -0.006898743849986196 -0.04353617765844373 -0.06231162705789133 -0.022194465789640423 0.15290862164930605 0.34905745556661133 -0.13696727418833887 0.2002857728623862 -0.04080365372027567 -0.059989843923492006 0.30723618292946414 0.06206229900633391 0.04294704809850765 0.19283313914353595 -0.29033308947181197 0.06002308230039417 -0.19280966871368713 0.021809258563199322 0.21528347685461557 0.061373254398864555 -0.014379406409144268
a</w> 0.19458518670194105 -0.11054245220604472 -0.21713350645230128 0.10214814498921342 0.08099476357668817 0.2080656809262913 0.3180620376896151 0.13606140151159996 0.08567805139083852 -0.05416382467760604 0.10575598368020647 0.174982159421932 0.005467553738052395 0.006445532439439273 -0.15023844300914943 -0.06811500814267804 0.012919387453355892 -0.0054944059918931995 -0.09877712374610807 -0.046617382507135624 0.12366316295873393 0.16725305030621673 0.235085716651751 0.41705361714946326 0.08395592751982835 0.17562719470329988 -0.054577750907465875 -0.20019040327112728 0.15287010270620058 -0.09794097810597312 0.08833245068839167 -0.018212815315257303 0.02291975390296895 -0.010286498885263421 0.014526373003712753 -0.10976251491897578 -0.09902484028028578 0.23736158972477994 0.08115051343563998 0.013328589157363116 0.03583323182379969 0.07662680864662255 0.018316193175287408 -0.10857597833857013 0.24218878915542738 -0.18628522309501136 0.00036355182956041146 -0.13773123024951955 0.06298478069100509 -0.12424571244377902
s h o w </w> -0.06326983142634239 -0.091466667277639 0.11509147296789278 -0.22324213299725607 0.0855713834834532 -0.1423929238572841 -0.07636148220843118 0.06184633662551796 -0.03310032543154025 -0.19355209609489196 0.17891582103482498 -0.03181559587755062 -0.13452594844582993 -0.0577810893917423 -0.017697279135565853 -0.12358690181662406 0.3932254990851051 0.08667060769240865 -0.08315718820088577 0.023401883957697277 0.05122644234178655 -0.09213796252986887 0.10703364351192395 0.06042712006576077 0.027078657972434077 -0.24279405178625926 0.03982335811157093 -0.12782113778138737 0.017507484961387123 -0.07978307560621181 -0.048364846632765635 0.01360103722933605 -0.18284568844372717 0.06264545570616169 0.0375888498872899 0.10895515260829473 -0.15983199491515077 0.047751886689064 0.07911677643851724 -0.025446012224851496 -0.23667680818662176 -0.21663482074799437 -0.004832431094185845 -0.039163515586255096 -0.3713074254190339 -0.09185313019130575 0.06359450325064459 -0.1435636299498006 -0.18921930609190116 0.3153123137246524
f or</w> -0.3683149403029844 0.15584171198546587 0.2288114229139444 -0.09581546659283446 -0.04008691221043319 -0.18551392225609736 0.10633395299508268 -0.05587898635684764 0.013919732833630433 0.02053427188290552 -0.3307964428509699 -0.07873071971281752 -0.18110371138550366 -0.015702828572142273 -0.038104509325652305 -0.031016139932589927 -0.1909626316558043 0.24882226564879806 0.18215825171074018 -0.11937637293034778 -0.03839881622964563 0.22289014819489675 0.02400680513379745 -0.0018102671352357043 -0.023130552176674646 0.12712725211148615 -0.1154104280263926 -0.20816835253292776 0.1811294222123347 -0.07807585514943051 -0.028488204495858354 -0.15302526066480632 0.00794969983076025 -0.04237151286113506 0.17684949558273536 -0.1505983214660162 0.12539735711109393 -0.049626371131435705 -0.024700235639867677 -0.052772272291278094 -0.13810109887326671 -0.04087128498558988 0.04533341876085446 -0.052804452492299335 -0.0810352477569244 0.19325920194493879 0.14717317802063296 0.23058360370402795 -0.13044633515424672 -0.06000323785001168
f a in t</w> -0.05850359273864055 0.1313346887431543 0.07132245208792468 0.034325858369439174 0.1032606670449753 -0.06313651924448506 -0.015973392494148995 0.030670010951219573 -0.03703816372024682 -0.2159389281959881 -0.031789171246293615 -0.11588665635085824 0.030473172625478495 0.03015975981282418 -0.19548148574528454 -0.054033401996912325 -0.029529735303316266 0.17180019137251695 -0.2821629519279393 -0.12215436691239469 -0.15307501086639883 0.1478242322053195 -0.2825285412504029 -0.04993530030996608 0.07852946298325428 0.05147029200376023 -0.07362479736976833 -0.14368865711352846 -0.04449144806015206 -0.05455525239255666 -0.02244079348108801 0.035278995391871244 -0.09668936302431115 0.17346195132514994 -0.08256183986055014 0.25815604045866414 -0.2512230699653036 -0.2603098870064349 -0.07483463503130089 -0.08501600172356477 -0.12132296617491667 0.16465943042907 -0.1408451338554035 0.24043760875020545 0.26914843045501463 0.03128027853906779 -0.05921884522554078 0.3134429890994794 0.06722631925287507 0.04383361455152948
h e ar t ed</w> -0.1397438379286392 -0.12575383993657563 -0.00304060772965857 0.07020443881933303 -0.03580722005795842 -0.26171039874813784 0.030852567360491745 0.011928653194643377 -0.06370164348934619 0.1381919986971625 0.09710368731637656 -0.0775553266855121 0.05412515508745563 -0.23281246366742733 0.07220887050973535 -0.06551272059428333 -0.11312211369048131 0.34157741336781605 0.03291033988928769 0.15734936014032647 -0.06328935939368403 -0.04926786274942247 -0.030240175683059128 -0.09095951065147682 0.13459842826499815 -0.015097433112212774 0.12653340943646066 -0.11009242951507474 0.22051703180210153 0.21971717406424068 -0.0013467613685127445 -0.19242471123756477 -0.14746099300209684 0.02175543111400008 0.0820065930584524 -0.25682073265600885 0.23116663806684712 0.02762583265457485 -0.029964246877748173 0.08007462807835987 0.10169598549552324 -0.38571381438831004 0.06475786178289875 0.10580872138202142 0.048977554078944656 -0.2692527224837794 -0.14499621710932437 -0.027326373339061023 -0.05466205177409177 0.04123640249705035
or</w> -0.0273129617813339 -0.006166778052691985 0.15767174321244415 0.07202511800840866 -0.1455239130858675 0.23329846374502872 0.15456163823728364 0.0046601142218026335 0.030018641886349815 0.1538344838051592 -0.2804306864226157 0.2790927220210326 -0.02923292524609836 0.13088757886312793 -0.06955138870674046 0.11881512600596374 0.151089010023939 0.05093531099989197 -0.18766443853263762 0.11202126405982406 -0.20830291637020884 0.11584779649912029 -0.1483389516832446 -0.20650273306493727 -0.11552163844542909 -0.05832232191907675 -0.07546867593912467 -0.024360446763086744 0.08044374775093145 0.302543432642867 -0.07490190603918184 -0.09148686144104026 0.10485503396140244 0.03360015283072371 0.03195264084456632 0.037138092905343485 -0.026356728840492644 -0.13593954219179127 0.25200535371367766 0.028317264520828923 -0.01536341543946492 -0.018694144393585535 0.09232198896160342 -0.1645188739145518 0.10964895022186884 -0.10458259074694069 -0.09814846503091271 -0.03748484629802432 0.3549299615073204 0.16669655587446028
t i m i d .</w> -0.28051467594213736 0.030204404646835232 0.024085563069988426 0.1728668992424779 -0.08950629705423988 -0.045662919881377585 -0.09212537253009603 0.02503702802405178 0.05282666434693092 -0.04533618459095354 0.0013719734170639958 0.005888173820362144 -0.07847053637801184 0.10313937762628923 -0.26030560600789765 -0.26115264114621006 -0.17561828419226075 -0.11177724371529396 -0.10939947375522946 -0.12586517450462062 -0.07383641575848088 0.11827602987431793 -0.057900535197765314 -0.04788867658843698 0.11143555519691985 0.21916436819592935 -0.020750836398260166 0.20145664646268566 -0.13715516050252705 0.4676050040620216 -0.0949127822042908 0.04101687424101541 -0.010760840904634427 -0.07719737560757126 0.08905934812713882 0.2355481203190219 -0.21771114348153325 0.05214340663876255 -0.026987129453987693 0.0210869655024071 -0.05653022590854925 0.07586001487106118 0.2682145332839015 0.04372969189978132 -0.13468955109556724 0.08299946334491407 0.1862457326060308 -0.05405076255689169 0.017983534472619266 -0.026227802102492932
p u l l s</w> 0.07818262477315813 -0.015380246717057948 -0.20244821496356963 0.01232530645903899 0.025339238287975147 0.24326498494651613 -0.024615244103667226 -0.029268332967066064 0.04711738872008434 -0.11527296686074291 -0.02595452914037442 0.12427405937917375 0.4873373356917154 0.17939051607824813 0.005295816856783362 -0.16678665769136555 0.1517641068193944 -0.06408462579780018 0.10481884919296924 -0.0738984563757615 0.1858086622013362 -0.033179184213541796 0.01819663933352373 -0.12377427909071326 -0.08925795940244537 0.1044264331921082 0.15637545423673224 0.011840500712067397 0.06548499647695402 -0.016349115309098446 -0.15745958673666796 0.13889841776414777 0.03949890370539588 -0.11502031256578768 0.20129978103967514 -0.0006973041769690202 0.04267603721427791 0.22220643564995282 0.21660156419769216 -0.19110783432802902 -0.019482571168986544 0.025413237169140557 0.22314525502234475 0.13647975931641612 -0.13337924076239496 -0.09170885819676443 0.23301917302938405 0.15843135246605267 -0.08706806152166327 0.05036734279233532
n o</w> 0.39279067495754827 0.10089116904982383 -0.10599128529251511 -0.15104557308059327 0.08605368991464432 -0.3432260961644159 0.04217456999410493 0.004150193923034487 -0.15456319663708928 -0.030314795769060824 0.048816962075158774 -0.08956901133694585 -0.127139461754713 0.010952367017640118 0.07133029257289981 -0.15326952096323265 0.0704995407827698 0.28800771111785656 0.010915641426112978 -0.050572486858020425 -0.05708207792499415 -0.17767772821190403 0.15670545197277166 0.12988727253305463 0.10507375480050529 -0.03357053543084855 -0.09415813971347664 0.06790741095707648 -0.06697460580045765 0.25576283830325247 -0.24031786305264977 0.026436494176308178 -0.01999421526709303 0.07979390347439203 0.0910596203478489 -0.10586066510547619 -0.0065569596056609045 0.30063723232774614 -0.202999410897951 -0.10536963809205421 -0.03544758485023384 -0.05163145819538692 -0.128738291586409 0.1441093999897503 -0.02592117856163449 -0.21915104071080735 -0.00791087553288349 -0.08881598643292431 0.04560686237804551 0.06753666994804518
p u n ch es</w> -0.09631672191434994 0.19838012609629344 -0.18960122804476848 0.10891785117781082 0.09789146640121213 0.05210509990007774 0.12738823142239092 -0.08850111392170483 0.055674383670683315 -0.17439112891146896 0.04492020686896289 0.050644613910202155 0.019982502243857034 -0.03274772501185414 0.029242299491764025 -0.18680477456871475 0.0004463198649782707 0.049547392027649566 -0.09695368832961834 0.01583099895737563 0.2516907705989308 -0.13365411149838177 -0.06694539301285209 0.2532903683191282 -0.046151734860614274 0.14890447035630244 0.10286109100931827 0.3351356833226234 -0.3333923536383087 0.1637624050321186 -0.10976693042269588 0.10461316315405274 -0.07456505248214786 -0.1529939678403418 -0.177710279231837 0.019469128621769298 -0.13867390131697296 -0.07037499105150988 -0.08504908349683396 0.02592961941874819 -0.17503649240204522 0.19067041222270184 0.1959984686098311 -0.1888209423499354 0.011659880195069255 0.05101799928891959 0.0711639327903095 0.2817052048877397 0.014662464871689106 -0.017679467849895738
re g ar d s</w> 0.06535844448054788 0.06481462452194671 -0.01284517364594666 0.04073783345654402 0.06263324023042445 0.07598105762578378 0.14467615009445883 -0.021664595246855167 0.03825348182227806 0.017668418662985803 0.027179368790036434 0.006216781930218327 -0.03983305470033876 0.14234197619082492 0.2340729359017371 0.15555919048782374 0.035763343132304413 -0.1033632775716742 -0.2066616373129499 0.1473673101298142 -0.09988051935027377 0.027166510928337693 -0.06123604154104388 0.23058783831483265 -0.12862482560577593 0.12346215684701799 -0.07864329252201237 0.13859840127477938 0.14025433730847164 -0.1327862745908696 0.02633658572334058 0.037446072695065225 0.3101452394445538 0.03265472842579844 0.16457966694752527 -0.2775732240604344 -0.067215961818652 0.07298893175276634 -0.20400234678793985 -0.08095100987803705 -0.18017933509351483 0.10585572755164518 0.06290287205805191 0.19376084038024366 0.06652313290540847 0.4318669043511671 0.13813048823386856 0.08740782405841847 0.22790488024131988 -0.021012513509720488
to</w> 0.02514724706583271 -0.04407541488341719 -0.07702817768795402 0.029488111507964623 0.026476332844345214 -0.08387068503221218 -0.17516024836777164 -0.029964765018900757 -0.03903258025053481 -0.14971267724691634 0.09347348682583992 -0.04737831702268372 -0.10487062538342228 -0.06424287641271985 0.10301392219175229 0.19280421730562405 -0.17928618365444593 0.15613390779202171 0.08105410636452026 -0.09403219834304559 0.20887905378238567 0.4684952711583361 0.1540103604823064 0.0986856619109548 -0.1391800767189528 0.108367071961541 -0.07051173470967456 -0.12619811006495646 0.029401756863137278 0.044379468358140765 0.24337868676392593 -0.028640704073695473 0.26258521669564255 -0.23755011268166343 0.2239916312197915 -0.3261952219349124 0.015947756005563963 -0.050825587330625366 -0.05615790003542805 0.04558704186823825 -0.15571947743659822 0.044797506921683904 -0.03944814838277996 -0.18367622439743136 -0.07864614609727208 0.04641394239868838 0.030956489337713954 0.06058442913902001 -0.02576220804869772 0.06972940358690989
d r u g s ,</w> -0.2644272241895171 -0.34792581633975495 -0.07526963977097319 -0.05305393966384585 -0.22174735768220036 -0.018182235189152962 -0.019981429100350594 0.12454824627558155 0.006411178862261956 0.06543435124006976 -0.16544023557891824 0.04101684990121848 -0.12029868022966843 -0.07860921869816992 0.13829070174544963 -0.15640359617135643 -0.00950658061040047 0.02261969761740576 0.034513517637384805 0.004390926204073216 0.17248783948069868 0.033687766478355564 -0.03841541875659381 0.3660914971176993 -0.08997809338373756 0.018444525095045138 -0.013913951794322739 -0.08188454958835059 0.053058463529362686 0.14396780172851661 0.05171717078985909 -0.08342974184063157 -0.2557585380531274 0.0768175696849049 -0.25982966912586375 -0.20271244418130463 -0.09904040556273835 -0.13518672506949128 -0.01763025985698607 0.03052803983785167 -0.07684261907268372 -0.06593572610583268 0.08999538047591121 -0.20146904031611465 -0.14614654571865593 -0.1877897553966031 -0.2571204880153597 0.10858162327050977 0.10634490557799112 -0.08239312992103304
s e x </w> -0.10306496171140062 0.027471482980725846 -0.12963283480930643 0.11492977659675901 -0.07457150601572979 -0.02410118546071395 -0.1281551572754471 0.05332922800916895 0.1547060475861984 -0.21972693662747825 0.004393842298038594 0.09765522207416609 -0.007543464255951569 -0.20866102679630408 0.07996580282949552 -0.18859802783980387 0.08551695866151635 0.3931935595667177 -0.20049153043101353 -0.012459394088779822 0.0768656221646134 0.0034544362498066376 -0.05942186554042811 0.1542135152832424 0.05807795350532435 -0.01082495285367218 -0.08061520578067259 0.29431948616582276 -0.0062428823752990635 0.17778059496530196 0.20584135203654078 -0.02564069965592098 0.12728524351981582 0.19345234052208174 0.012733569984060212 0.107252033820867 0.13114494696816895 -0.08898134009917462 0.07942131994878361 0.17482558859903968 0.028631263587037326 -0.19281595146719502 0.1494542977229976 0.015881797241932057 -0.11982265466405519 0.09143872928365805 -0.25540479529414484 0.21371681165149037 -0.18353020899562714 -0.06253658759955434
v i o l en c e .</w> -0.06895206742992054 0.09407250289287293 -0.09140482744255177 -0.1873119361567805 0.02212226934540091 -0.10528266689579434 -0.15866265696608345 0.013813373405897379 0.10035722315705413 0.10314496126473938 0.0442182711501115 0.29129868991611463 -0.14671958639785743 0.04769282750171251 0.2067545422641267 0.07980113843699747 0.0210740756409896 -0.18656768899327397 0.07785525178616141 -0.06712090397317387 0.1769444567863525 0.0864342686958131 0.15508009408598214 0.2262194961053247 -0.029918668970650455 0.03091280739723433 -0.06600105051483278 -0.08872557097253493 0.36352959122003675 0.014503474198621078 0.140826570703095 -0.3572248652114372 0.17330533954169836 0.18969700912039208 -0.008189946952486978 0.1270277819117708 0.11472382427045863 0.025756383468785997 0.044091829283665764 0.06876442043335523 0.07930003470138221 0.20768712837257902 0.13411186796404273 0.015528176974581469 -0.045644984055647236 -0.09466226282497996 -0.07116439479092385 -0.2542697596215834 -0.139578626512077 0.03545090045498546
h ar d c ore ,</w> -0.08898705610656621 0.16308697741570916 0.04654221234565778 0.16397086093583324 0.05109238491850472 0.07693907069381026 0.0973896841018919 0.03419588824497455 -0.17723515973050782 0.2477616607630437 0.02996054068078071 -0.0012461499385007684 -0.05026626130404379 0.07994647040804401 0.09809875419829932 -0.19693596702630814 0.03993525802925583 -0.049043790892477894 0.019714063652841514 -0.23994518125636435 -0.2002032140927273 0.1227720580049499 -0.2870746219592528 -0.031798294465675975 -0.2312964780115989 0.1139097072110744 -0.09354788574287493 -0.18920675869041773 -0.138462789299383 0.25606962324524885 0.11120803165814905 -0.1433834249814739 -0.052355334410977485 0.12487172216311174 -0.02271179261017405 -0.01787783978088022 -0.04505826955029205 0.1613764373306619 0.048936040289053774 -0.16901916112807408 0.08641543163303948 -0.04884867607508335 -0.11887408862028023 0.0810340779103298 -0.1847248501354213 -0.3039718506233505 0.14789672493305006 0.1614842639906335 0.2079958564055608 0.10247240120498419
c l a s s ic </w> 0.21472889214682064 0.09143639715542166 -0.22617187896400165 0.05606458325904777 -0.001199468029803536 -0.052924595794497244 -0.28433742388991823 0.23945032621358617 -0.1518925637391566 -0.06850088946441552 0.24371259095229794 0.0842458586548176 0.38419907707858286 -0.025924670018694973 0.09497204973198693 0.025897559237806445 -0.024061066767041235 0.25032847495468874 0.0804370244735928 0.023259187874750155 -0.09931814813835266 0.14576880670620265 0.1062529471274849 -0.004921220417835246 0.07157276571348721 0.09566026910190913 0.04605198773592631 0.0343123435812707 0.3088544913606364 -0.13932907092367805 -0.10272227096568959 -0.012745728700330798 -0.006061164634617957 -0.23502185517988408 0.1748109960662794 0.06149024536344912 -0.02471899253722503 0.022115567638169246 0.04689719182601865 0.05449628060229769 0.08544270232976482 0.16587488714106352 0.061464613708133935 0.24861102033135643 -0.13241234122250994 -0.015199725522244426 0.08298481072682595 0.006889108801886515 0.12804333528691156 -0.06981194054313826
u s e</w> -0.1408208807992822 -0.029959764031375152 0.07749565279119287 0.03168644293848452 -0.043217215803053946 0.08772696229666202 0.08605612462648315 -0.007091513639848544 -0.02928975592403323 0.1404048518127751 -0.06490742473811643 0.23091205614901655 -0.06766483826264638 0.07755277463544863 -0.12140759945282084 0.10764957790625788 0.07322664826221262 -0.25446729235056353 -0.11956593548290145 -0.11222030254301432 -0.24256087103255763 0.01599436402523059 -0.13139711972650955 -0.10650856719070562 -0.30007333914451034 0.22096270896136486 0.2866934889373289 -0.2632204772339756 -0.13477196833572164 0.03785134343249765 -0.035976166506971885 0.15289434270751703 -0.08773974975185163 -0.027296200045851638 0.03831848818715805 -0.1720461388110703 -0.10670385370309624 0.056361500755467434 -0.08898738591634152 0.0752172697093282 -0.10824309560223956 0.1613367244732234 -0.08558238384931399 -0.09071436361644747 -0.06361170194748222 -0.34974040304203663 -0.17314207844766052 0.025279738994174496 0.08257701459292925 -0.19012080570117404
w or d . <br</w> 0.07307393231940788 0.2166656346394673 0.05102608330543492 -0.1221990336871158 0.20906967131815546 -0.12086390386679889 -0.14843586374994763 0.20558078843819214 -0.11080225571990662 -0.23537499261935474 0.1379639479309498 0.03591184432745047 -0.23593694914517585 0.13087373187831589 0.27664305267861566 0.016208453049169187 0.1166825682009612 -0.10491243552576308 0.019669032208733214 0.012130215060481304 -0.07023984178138853 0.21426787581806686 0.0459939074589616 0.2862682994111854 0.07028944979704756 0.010714872792077303 0.24537201216908525 0.02460470783976097 0.06352699158223536 0.038187981669321296 -0.02685522746341859 -0.19839240819056955 0.09291195804788285 -0.08656587166918803 -0.2892650402982437 0.10272623234301458 0.1408184437437067 0.09748606115060049 -0.22710055140956542 0.01559330874783326 0.051039287844188846 0.19793398471859158 -0.032895778660079415 -0.02965327811431115 0.19992356660700347 0.050345360710340584 0.09364924699806583 0.009752529794925682 -0.0421337935956659 0.10036642256675249
/> it</w> 0.20821874641769472 0.11521503375754852 0.09665715098931861 0.12742370509492315 0.07959976888531321 0.07394508027037669 -0.05321460486889281 0.04795827816020726 -0.12863152418304785 -0.023701109059368362 -0.2398748748693022 0.18822863815042207 -0.16533529891574958 0.023393179532125385 -0.12129609264759016 -0.2641701405951832 -0.25848480518204603 0.07538030321404623 -0.21342627680103535 0.1915079632624375 0.2650835486334046 -0.0918779882311175 -0.019671989584764914 -0.23249667874636126 0.061812880073764634 0.18884908084781965 -0.2588146892186045 0.19228404556744588 -0.07606171424080391 -0.0713622736002087 -0.08771101893060634 -0.05941801843274547 0.031542003408719634 -0.13491041372576804 0.054935265037985126 0.09771339132001204 -0.02327279094220943 -0.23896507656563568 -0.02054838360567127 0.0277750265189361 -0.0864175342237467 -0.010062447709442736 -0.11525423907080971 0.06804554475550438 -0.1497031851802303 -0.008670282572771961 -0.11415154136116182 0.24823526719378194 -0.065853287760261 -0.08612588073688111
c al l ed</w> -0.016129553752443026 -0.13939210332413693 -0.0008559224422260724 0.08393016530966975 -0.30012560929597515 0.1947499212046695 0.13055609528335496 -0.1545446368169243 0.058820368147161274 0.02216210322026394 -0.18381870044967955 -0.16369190287694674 0.008550065835831525 0.2051513127991188 -0.0672754114765629 0.031332111810813267 -0.0438379634877781 0.4513950334335845 -0.1365426132527118 0.09420274222355482 -0.017882984144509763 0.08528466954958534 -0.12808309057008363 -0.02892347194375557 0.07502029464493286 -0.297660327334675 -0.008855828342977613 -0.16526593815729945 -0.09473458946593322 -0.09668634590435131 -0.04983567285189847 0.15511382277859995 -0.07433592447348482 0.06389005371753388 -0.07879487540866584 -0.07259047838577289 0.2117509176924568 -0.20510747775762422 -0.10247699670503765 -0.009830403109437237 0.22944336325465448 -0.18754072069734484 0.07405013851008752 -0.0075110809204337525 -0.18292729586418224 -0.011363072571327338 -0.042526531081078435 0.001412096351784229 -0.1410446180184953 0.01915120604740875
n ic k n a m e</w> -0.14506801030912841 -0.049870895636077446 -0.08443387377263549 -0.024932676376390964 0.14019058409190094 0.05593931383108287 0.1598620555310161 0.10924928629199306 -0.09139904102265756 0.012781702439990718 0.23458435147575968 0.15016946711348086 -0.03486288820999198 -0.12697790788194896 -0.19368395322963206 -0.0061177314773750435 -0.18750056627701442 -0.08459734475005162 -0.22153545131205085 0.20434242446140452 -0.25978498502175973 -0.06144730912906138 0.00644919210727161 0.17913009781936048 0.019637314082067755 -0.0010477263513993015 0.06865263565289724 -6.842869095411031e-05 0.2309272536706049 0.1863147775267103 -0.2367590031608832 0.02340656566062279 -0.23802068991564185 0.0818220393765805 -0.19526490332486965 -0.11002620052026242 -0.012105277285724022 0.20625416448958428 -0.10057130594043294 0.1273732755270962 -0.10830566084306754 -0.13248932759169957 -0.20243293401116735 0.1763646056799972 0.21294416743521305 0.018154928851696197 -0.07337535536013785 0.116262554834813 -0.18057764101063895 0.0035812378557417996
g i v en </w> 0.09945441655346048 0.06921425117557137 -0.2578799357538116 0.008527491852591764 0.0625135076586897 -0.07393420389405035 -0.061325130772341786 -0.354511414915613 -0.07464836423187128 0.13453543766498055 -0.09055351917214424 -0.15434644413990672 0.18177423838019816 0.23685621775364182 -0.06285458933038514 0.2695384165979954 -0.0900113649069163 -0.06993517565058646 0.16699279808216205 -0.22423556223178934 -0.00815132591737386 -0.07466344070271706 0.033801975915371145 0.03984377990365307 0.03813705681682834 0.1856231578703876 -0.13741212619787385 0.15808167428748168 -0.169674653964625 -0.029941198939790508 -0.22409582422884905 -0.23318243731964602 0.15038518490259353 -0.1341271158453557 -0.05856170479253186 0.08618504120567262 0.11958793662851658 -0.1798867997185902 -0.08679360988957709 0.029261545788487955 -0.01676652598039806 -0.12632660631008696 -0.08009121448497929 0.07905008744002393 0.03800781851454864 -0.15966079029214758 0.18069742189657514 0.04147282747398464 -0.0778155824336595 -0.20522705985717632
o s w al d</w> 0.11586738519783937 0.1707082367049592 0.04735165727536155 -0.11094527229817566 -0.27807013132891784 0.08668736486349404 0.007170298343859161 0.17348402172871324 -0.06012416958901552 -0.24986180668372596 0.3020012460652063 0.17973201535090758 -0.09971831780238322 -0.06306579791508272 0.13725532952280434 0.06534976541431035 -0.056406185023360096 0.08278934883346453 0.047697244800859115 -0.10651678709047534 -0.14832359973041764 -0.25956254778340887 0.10756358550602908 -0.08032891484150842 0.037743189775058555 -0.1633502008377694 -0.15846407005813434 0.1474098623491051 0.13217680488688027 0.12770387387418572 -0.03326156851561549 -0.26380940125208074 -0.1995515125429076 -0.050135481838659825 -0.19386193172137414 -0.19297391094081368 -0.10938802653866822 -0.005354651355983317 -0.009950348714556046 -0.03543082310182294 -0.06298584570953596 -0.08032829696764435 -0.21674008664396183 -0.11498255632805994 0.05909158310939853 0.008731035752965896 0.15510405463636873 0.0814347457709139 -0.1921505684562405 -0.13612649188636358
m a x i m u m </w> 0.0030341289072546014 -0.0776537266407937 -0.05343195282485114 0.10613709566440298 0.2434018850485893 -0.15173109339805474 -0.036525934562190006 0.0394802162256445 0.03503252820622263 0.15530267193760747 0.09044125556395245 0.2308685974832441 -0.1933256332531103 0.02691668704058406 0.03698162134732341 0.08011764181607704 0.15787654170572876 -0.194977890463111 0.16796153821878954 0.2669451610515044 0.2414329875737132 0.1260878392867156 -0.1870263643689434 0.06166603854037454 -0.07819825062545965 0.011995325379949396 -0.16071087530738676 -0.061608564670294005 0.030067295481851247 -0.08047188419165019 -0.09808437723663162 0.05190057317340493 -0.1236535199392722 0.03606270005317499 -0.08449988055670826 -0.22986827040907518 -0.04189484748497024 0.1337311088653452 -0.09676534015373062 -0.02721784218659839 -0.11079875494308203 -0.2606382387719899 -0.413263853179952 -0.045024446562116426 0.017722818081026253 -0.007341577860093351 -0.13312284319273515 0.11044447571919624 -0.17591571493906658 -0.10217687111528052
s e c u r it y</w> 0.18296765598963674 -0.0016723961528173424 0.19274459120510426 -0.29287506123994406 -0.08066308107800854 -0.1042799298612755 0.048309057009196237 -0.06820282033308793 -0.11756553431367367 -0.2737783101453436 0.04133358665487161 0.05158135207721102 0.08324105039382498 -0.07307579237669794 -0.07921692222788411 0.05967620476327218 0.13577173127730355 -0.1898161015143042 0.019711955921329082 -0.001504553784841776 0.09506783084073032 -0.005164661504677423 -0.11426627504989496 0.29817933971101074 -0.006303563069041346 0.01914828353336843 -0.1314073943494793 0.021925356966940323 0.05409982614172676 -0.14347404215566287 -0.013680808028354812 0.023224273801317533 -0.025948353000083732 0.23644782105203324 0.14159223925356346 0.14169533627914832 0.08364753470511153 0.22093237365720939 -0.06299650218125574 -0.09108918434062946 -0.21069432444387287 -0.2837490990704652 0.10680780442779109 -0.34553316269306666 0.0412859072282073 0.1257678650295035 0.1045291168049617 -0.007086591213368067 0.12356820409663982 0.1773162449986872
st at e</w> 0.11738866595729476 0.07463947355466825 -0.026130123049173202 0.12302751687496513 -0.07581286743672766 0.10217391445027131 0.15495922199049258 -0.14607380575465048 -0.2846423526899694 -0.1474075204987461 0.1813686614234538 -0.09996841865376044 -0.048256989561623595 -0.25219148688063 -0.1607746221389382 -0.2697892503632622 0.021424835722275447 0.11858647194047056 -0.12796875794511103 -0.09411903737475798 0.047645921357388335 -0.04503647632456106 -0.09004458955679959 -0.12995044888138468 0.18531925691747184 -0.13395305726970289 0.045986872877787965 0.04617509217893023 0.1678981116299261 0.17687471866759835 -0.020967425136214288 0.031819522382441554 0.14430055799304975 0.2554591059914151 0.2682710425920092 0.18558402900439522 0.21227749249097358 0.03559180621328715 -0.10821189187788974 -0.03170416125267897 -0.12056699009971976 -0.05224413225688707 -0.1154982008244545 -0.19838011492387833 0.10610090320056881 0.22527313222972717 -0.034246827762588104 0.04180306104858204 0.08171637270321089 -0.11610757679320265
p en it en t ar y .</w> 0.020150982108085542 -0.10485673510230524 -0.03671105009538436 -0.08564372948496765 -0.02557830555645298 0.10311110606329474 0.20265574793253324 0.010440435353567113 -0.12554081607269493 -0.17149138335833938 -0.05497382397405485 -0.07134431468729499 -0.010534024758999352 -0.020653945026975064 0.10000950712294027 0.08972515180542097 0.014971182979641465 -0.20545690982863335 -0.09166362649896431 0.04922094662667225 0.20412113596926032 0.07222052550903031 -0.0880915579373704 -0.12151936891594774 0.20879114022097542 0.14244478493524795 0.3247998874442991 -0.2883952845789353 0.18190643153792613 0.3116584623019145 0.13479838509769362 0.22683544976838044 0.06373907398077633 -0.07275570013639297 0.11728023219615054 -0.14501632428685413 0.07468057494063987 -0.07031571588146593 -0.12968234900208062 -0.07546602867162291 -0.15031474001890646 0.1545340771519889 0.03854616878598528 0.05920844511119345 0.1510903525226682 -0.09835314991329275 0.2585312734259145 -0.11098764131627652 -0.08373961960028083 0.1822118406444406
it</w> -0.2638747324941454 0.10766868376928852 -0.12833487562631013 0.12530545134309531 -0.1810133429159137 -0.11006589688137249 0.02458091653569408 0.020855362718997426 -0.0726203680083994 -0.05027520112777362 0.08158544646163808 0.06415533889075616 0.010300423557305434 -0.17911709519435337 -0.01948599874755175 -0.04290982793395423 0.1500513376033549 -0.03941255359306536 -0.31157757383674495 0.18898361313112685 0.10236303644530746 0.2101016532904205 -0.09394559099632359 0.0223573354200356 -0.009941942489977706 0.007171514930284624 -0.049699601594262365 -0.05832552074467379 -0.2318133448943522 -0.05456931944340045 0.09726277929455354 0.14523375446334058 0.16411906352596398 -0.10015083214341228 -0.07474323008261674 0.061564408512861414 -0.09572597074553604 0.3307629721495771 0.09632207887838833 0.022775087059094038 -0.03726262516150581 -0.04009477656206731 0.043854580948592535 0.09015067857731719 -0.16731638160981044 -0.02053060013491662 -0.40482905888728177 0.11744391958764326 0.16533185285228325 -0.22895232186151052
f o c u s es</w> 0.13565134403159615 0.19366797174204967 -0.13552229239952104 0.09985389822964769 0.24470689555660474 0.03272294379320002 -0.021988294559274882 0.2583718265236594 -0.09553303140134187 0.037139487565652544 0.26328628720930686 0.07201637753647147 -0.07241430782706372 -0.03028306540432336 -0.01302266779898157 0.032553237072800556 0.03932856024686228 -0.08107307086552751 -0.036050747808317886 -0.03991071529947009 -0.01953988911880122 0.250267390084686 -0.11586795648107646 0.20620290029352964 -0.3045807774647114 0.0022782518831101772 0.02210489523666562 0.18284901465434525 -0.028414930608398312 0.028042259072790107 -0.11215040056666657 -0.06468608626467173 -0.12760742261899932 0.12761239687579157 0.01747183391206295 -0.07439661052582486 0.30878814157478385 -0.2294474564984055 -0.2570415599500419 0.1741773359176573 -0.06371262495956692 -0.012714298871368051 0.07058020147544024 0.041288089508696744 0.1424292535539489 -0.25675825660156243 0.06080458939650479 -0.019578925419412977 -0.011408619915901487 -0.1897184774726424
m a in ly</w> -0.010311959714792011 -0.09992509542839977 -0.13416225570464693 0.11980184529495078 0.09480173097592826 0.2744164226957374 -0.14743239907111508 -0.0206875138874437 -0.1459539211206438 -0.1772992595983692 -0.00995975301037933 0.26132345447512384 0.12601350570510397 -0.019850996534234177 0.12762650164424313 -0.23537822010793147 0.022172134200548928 0.15724707592602719 -0.04919863515507335 -0.11888675003465933 0.17571402201125066 -0.03337642493671162 0.16350518386039145 -0.1479709170328888 0.05575861967577784 -0.1274037230052035 0.024023467155638457 0.2526071935716352 0.16726129635130546 0.01924562645929935 -0.12200730899349202 -0.027669855165886537 0.022562686046744333 0.03335254072473671 0.015372251299842966 0.0799513868797408 0.16649949760994714 0.08616259359366385 -0.21922857274986143 0.1984882732264552 -0.0366821652814918 0.04518926723055963 -0.16769737733323467 0.10825008662720932 0.1157896042491912 -0.05275132698336638 0.07455325386567706 0.4411492798456843 0.03643933764588663 -0.010929159490846954
on </w> -0.13604717134575778 0.17024187159522625 0.05847213512210593 -0.010076844171701885 0.0036311318526440345 -0.19649646079651042 0.007457838548527236 -0.08892720827936763 0.19157698683695115 -0.23805886089000328 0.010118596904351271 0.01740359795768584 -0.01223906778061376 0.29351362968056693 -0.0954839893409907 -0.14334042159762322 0.1655619397585216 0.053768352990212986 0.002312796937228492 0.0274783412207099 -0.15440382802832003 -0.18410171219917704 -0.06006903740159745 -0.07727010630812078 0.13958199325559903 0.05591985266829281 -0.028893345369101642 0.07862445871189695 0.33262378483706956 0.04438187433235225 0.22651305638652988 0.1899364870637109 0.028486173225578674 -0.07572353905924557 0.12717105298646283 0.44785603435116034 -0.02900007807531407 0.07967658168774193 0.1901362533605685 0.20533299742058977 -0.10735148693500016 0.07719989821409434 -0.015612357153606227 0.1135706084181715 -0.01997941514426084 0.012512527560933717 0.014197994802922364 0.04527162334037447 -0.1458281312891669 -0.03418884670816001
e m er al d</w> 0.08092405673651638 -0.20500480290411852 0.20578258654689813 0.0553506896587835 -0.03797261496259843 0.028885158192859636 -0.06787687530497422 0.2553997011734121 -0.17098612777209718 -0.1102348770496369 0.05934036321797646 0.12324463975030499 -0.003053316844186248 -0.21776183747552036 0.16059945695526145 -0.020483970982602018 -0.052681686787444205 0.06947219131439822 -0.2610580910855456 -0.07797898351410311 -0.10364404876221463 -0.1561828531500606 -0.02297173488271719 -0.0488472298315979 0.2825598213595055 0.0633023159437382 0.1945009775148108 -0.1665897496794496 -0.22461657335629168 0.1005264674398408 0.23545395888496837 0.01768210130941503 0.23583502000150128 0.02129154610618644 0.05976232439776972 0.05635733250685682 -0.06380222225087268 -0.10984428457098812 0.017992822684609618 0.21908187608586233 -0.16817554532436021 -0.15295213761510007 0.056879925445787204 0.027677358387797307 -0.21163510936151247 -0.033245306823119505 0.15310375689422942 0.06943565888787864 -0.2135183895444269 0.10880168473486941
c it y ,</w> 0.14316507662121725 0.12376544550925267 0.055738091548521794 0.002423244603896304 -0.21574756242346427 0.11128297208549841 0.14530556725043034 -0.1820168483198893 -0.11471708564462271 -0.17111401431709733 -0.03937464755748438 0.022100890672270213 0.1278056387061629 -0.029223104671716887 0.08661273798709464 -0.0194057760499773 0.28374300352308773 0.13670367251645293 0.052495662632702826 -0.08622546121390146 -0.18906290988092997 0.06756740337790625 -0.02238219552043064 0.09970705012550488 0.27613109285588533 -0.04997862130286449 0.06412745569022495 0.022960935291140207 0.052329650550369596 0.1775374088371116 0.05844044084859103 0.15695879502897983 -0.01832357901216565 -0.1380688090166329 -0.14163340352866036 -0.021379249695822864 0.18037339824244775 0.09226757280391622 0.19852039885654998 0.13189828668538328 0.023268840452866833 0.13176035770607103 0.1361790255615508 0.28827698701112725 0.05117013314464428 0.3487311533048823 -0.10091270691374542 -0.14124719763830385 -0.015616554483508393 0.24614059235164076
an </w> -0.06577493891752989 -0.07949579558819735 -0.29405742912037885 0.16951736289135821 0.019270209730000334 0.1337032382120635 0.2087049787721872 -0.16281233890640157 0.06719148422863078 0.08351874661508589 0.13478315579355726 0.09895670587449641 0.011996687312601857 -0.009090690367232576 -0.004307382612756483 -0.149914380775222 -0.044057019350848325 0.024320233782934995 0.05653762730478371 -0.0059084034593028375 0.053723687858129615 0.04183475415232531 0.1039112326686942 -0.10696220460347527 -0.11053960728522727 0.0007804400476623814 -0.2105628298493733 0.3601852350818886 -0.06844433524333284 0.02709287342151631 -0.11131450257858072 -0.2102149920599216 0.0934787612855511 -0.05071661982546854 0.1823156298866356 0.040736597999123256 0.07407376780784038 0.16767991403573315 -0.24251621545411794 -0.16157279400560737 -0.26296556796299464 0.165921700851351 -0.10906534824868891 0.23860140098219285 0.014079922531303671 -0.1014362550630555 0.26225763177819894 -0.12986077228094928 0.06562857200543233 -0.10982357307175127
e x p er i m en t al </w> -0.05388059776423995 0.1360781189963995 -0.27812708822185667 0.20270687383812167 0.021708512673097227 -0.15340357426271004 -0.24405717267455587 0.2713298432124237 0.0710378558341176 -0.10684197108943444 0.25634071026847194 0.09671206118834444 -0.12174018683525235 -0.004627128938439106 -0.012753573540118949 0.18360259728681205 0.17215547988247268 0.06066060971885602 0.1721251125299404 0.04191749865271907 -0.1283344510993575 -0.04246023228878684 0.10001995780994492 -0.28612312637011533 0.0015865498732592657 -0.1549093020998334 0.037681368353013965 0.0024670753188097768 0.03744203783371761 0.033430435375573074 -0.003571597594654616 -0.04527318257299237 -0.12505264303485056 -0.04473647033287268 -0.10336414083456616 -0.3205392772084953 -0.037685826260190965 -0.047023624221696564 0.27516591724949097 -0.2413579891329765 -0.1177547916535394 -0.211432028691152 0.034422293890086435 0.018386680275661 0.006819515410756146 -0.12749721448125084 0.019028101396418536 0.010006615725802106 0.056867296073873724 0.09536340517392256
s e c t i on </w> -0.12927383089092462 0.2892582815914588 0.014030618772203341 -0.11951333325177745 -0.34353248612353016 -0.10780269039995766 -0.15269718660447842 0.27159465281550477 0.08761590090724725 -0.1327608946163204 0.006933996106802582 -0.003354097851401816 -0.20212444914805297 -0.07925880613060138 -0.018108222667582673 0.14203256354602795 0.01493500221444239 0.10183181625493794 -0.033279369570585964 0.16594523633421318 0.0242960334313877 0.12953650299786146 -0.04184182459582164 0.10800266330220988 -0.060015055603300206 0.03769899822550012 -0.04578540722834313 0.0123833787436447 -0.09884437318525922 -0.14260075109412743 0.05143345466590532 -0.06337730471464822 -0.006404029622229872 0.07350130933158426 0.1325099436207441 -0.4243602259731816 -0.05108803798900708 -0.1428789475000361 -0.10875586792442543 0.0503429474916428 -0.12627258502406621 -0.07027058422339666 -0.12894284292243355 0.24563666888337948 0.05805200439270255 -0.01163282346554498 0.18862969406149083 -0.1297837173209761 -0.1513371119194156 -0.18495747569877768
p r i s on </w> 0.15575232338453476 -0.22964799294705643 -0.06845679624962137 -0.36990920319768744 0.05737043453800999 0.11595129388921556 0.026970249145583484 0.1775856789686937 -0.17835168900080947 0.1414617800851901 -0.08243745081971353 0.2724947210476584 0.083306794440033 0.05011825220921431 0.05519456734267512 -0.1226156600490995 -0.19206423105356413 0.04984103351368378 -0.03331034576445399 0.02058481346439029 0.08921072968087877 -0.07403576047413711 -0.06371018829217918 0.026739627733382825 -0.1342243503182735 -0.06392346554455822 0.1981969595272002 0.19159287645716963 -0.13220388110974104 -0.02047233886454234 -0.20196437004476447 -0.0006850818044042556 0.05641253818164158 0.04565600769034816 -0.04096810234580609 0.08420441717216477 0.18296478506752464 0.1983678124600038 0.1673558942774588 -0.2787910965628663 -0.22479477137960174 0.056514797552055296 0.20959436715629756 -0.04820131780495465 -0.0048283226181230895 0.044089746729199485 0.10783927672707012 -0.15442496027220298 -0.07356661839371675 0.14405583408928418
wh ere</w> -0.13497220418305841 -0.17862114660066544 0.013678928483831445 -0.0697910932009584 -0.08040016998185677 -0.09024009580993006 -0.3682884491142944 0.2092101815449132 0.14157877298652558 -0.004543706598642781 -0.058328838371386194 -0.17967603596852358 -0.29121822192355007 0.011012703678109217 0.052454162783989455 -0.07449943170067529 0.0706302353441602 -0.01928072828035644 -0.23241833252546487 -0.11882369333079434 0.10165724307817955 0.18306621974243412 -0.16283107917230602 0.06632079138001722 -0.20349567104194075 -0.10054026700536903 -0.09662458013637748 -0.03202103668545393 0.015187319052873587 0.05502488462596622 -0.03634861804130718 -0.3491247313593743 0.09531987099656677 -0.035374084166627455 -0.1270256834341687 -0.22489475709932874 -0.004250173712770094 -0.025618878953337473 -0.1246304812959858 0.08606381541432889 -0.05167529899723972 0.20068206584967474 -0.006681144187830759 -0.04733177184094134 -0.01445495335944519 -0.16174513018112863 -0.07042125221687273 0.08263618267513059 -0.1609155739145332 0.23510317620343177
al l </w> 0.14675086149373007 0.2417111205670097 0.08229430248196527 -0.0771773616848308 0.0062979082369213945 -0.2147888008753243 -0.2293937622888815 0.1725187265829358 0.06632211286850409 -0.16511917331671289 -0.06076832147950535 -0.09087949183309517 -0.08900804274649986 -0.18108249517806319 0.0019840798506937547 -0.33464531131689595 -0.031243090917361938 -0.0029560105814504163 0.13837883221793656 0.05020504768798303 -0.15682887011315244 0.12156777951676406 -0.019029509601919386 -0.07600875686116687 -0.17363722532626363 -0.12038865388383484 0.16857760553661977 -0.16669858949770852 -0.18279008975021094 -0.004256742625937718 -0.10295203327893147 0.014132435069955629 -0.009841100587279541 -0.05886675092661763 0.20210018259374346 0.1800089315567812 0.375692460813912 0.04677955828367629 0.17814897854245287 0.16819975321452854 0.009803236422328474 0.14679559605574383 0.017628544871168075 0.09194274291489696 0.21074251546593575 0.03656877807505948 -0.023337571569616383 0.031546637644152886 -0.034716690577309646 0.10055540106679205
c el l s</w> 0.12719921657768582 0.2393497692853658 0.2354211036098537 -0.12356571183067773 0.08163106351554798 -0.0557708271978322 -0.03597858155966246 -0.09698285130134453 0.15203297355708953 -0.21266093659169444 0.06016365776843751 0.09118606599292862 -0.08249079236482663 0.057534435457598614 -0.14595358741634165 -0.1063471448243519 0.05886994157495333 0.07241956504600544 0.06477201726410245 0.2557787326465743 -0.04381931803087985 -0.1467894949929415 -0.014892563877953246 0.009990951519288941 -0.09991690645381135 -0.04374238635500135 0.14204146892181144 -0.008852873648047948 -0.025184208156991714 0.047574947374919206 0.14602087111563558 0.021879867782359105 -0.13626968694289965 0.255035537169408 -0.09574585384442323 0.11302651931835961 0.017851831063446625 -0.10393260586254192 0.37638202882761623 0.14622251166061048 0.14688420291648888 -0.0009329116400352397 -0.33680940612619303 0.10208298200581964 -0.058625040964917406 -0.10356360709837438 -0.280812765466639 0.04362039304451623 -0.1733739561802535 0.05711870553709549
h a v e</w> 0.13082173384473283 0.07173820915890645 0.03113757183440058 -0.12083188904580004 0.16261675147957455 -0.24453148094712845 -0.03554893517041127 -0.22296409954745658 0.0949159752586958 -0.0006416418960031755 -0.10731599891510053 0.025152629866206616 0.047617899577469674 0.03709907748259551 0.18416117049464142 -0.0871277123668255 -0.050582759414838876 -0.07867653245564353 -0.061843128468778034 0.07430717486985496 -0.05073076218509263 -0.25146647249958626 0.11863995071467784 0.15481603322746398 0.16416152832424158 -0.1110157054159406 -0.08873928208572573 -0.15987845354279026 -0.08570412774623094 0.011656489713669093 0.07960833004951776 -0.10087777918546804 0.05831506661508801 0.23732699810621527 -0.10833430765848052 -0.2551877506191769 0.04731838447121074 -0.06557801034734155 -0.17550315477328557 0.028246249011205798 -0.16386137619378907 0.3128618085268771 -0.19266524588025258 -0.11263472068486817 -0.3434595649111308 -0.02861484677719201 -0.0371438364663534 0.1151065475080761 -0.22476564168228738 -0.08246282381627694
g l a s s</w> 0.09771380368886338 0.26065578202383427 -0.18879750910006268 -0.2681108637258453 0.06105048117304993 0.02718154761577114 -0.08210294247505956 0.10618847267922112 0.1324394363710897 0.21630548868209334 -0.10555297516783566 -0.10637284464302015 0.041542736171445736 0.034716898115513366 -0.06898399830751746 -0.0012029088635336553 0.1236672343584664 -0.1165677627569521 0.07693563825949773 -0.1190876737943603 0.027368049776314133 0.06762944308477879 0.14871875502297086 -0.01569210466336896 0.3596297183509218 0.07066551830142465 -0.03419497500386083 0.1080352814623676 -0.13470035195870872 -0.12280630557022831 -0.031067966451960555 -0.0006488719700936532 0.10106985547218471 -0.13257662303741158 0.2658346876165139 0.1429658182349115 0.10570714003497893 0.054845644833947715 -0.020367498925093618 0.06487960627673221 -0.08597233152934912 -0.021292095543821547 0.17644000614609986 0.09571187997831108 -0.20005738933140593 0.12382847876937944 0.3694526219403879 0.18765562413150846 0.16241893636643057 -0.02659967543376623
f r on t s</w> 0.006407596545504261 0.04043553194686004 0.05050673923637479 -0.06926511462119933 0.13158060835046623 -0.11550450057923242 0.20497857288808233 -0.06732815170127551 0.20887613165997518 -0.08659172518113618 0.010781508755258549 0.1723060512782641 0.1439909907582909 -0.15357174387364408 -0.03135109019157344 -0.02422024162290779 -0.0018693499592397347 -0.17341195415052396 -0.14474023808183747 0.20264636716598536 -0.12154284715870374 -0.05336341826280326 0.03394800678217244 -0.06960929261614386 0.07183266270768254 0.2964955905384862 -0.19354150757608807 -0.012982740811626427 -0.064426828100852 0.06835422362831094 0.031146930024175356 -0.0794948383267798 0.40755440749439503 0.12479846223749287 0.009276789584633226 -0.06397325978638736 0.03455758646948261 -0.1486587939113887 -0.1267033926631397 -0.2014095928364175 -0.03286992833921155 0.0553098929151111 -0.07905112172574452 -0.16425899209246833 0.22781778113580628 -0.08920967225740876 0.2672712849086427 -0.029593430234701762 0.27872690522436233 -0.10695197034170904
